4 257 201 201 63 1.87433 7.83394e-31 0.394315 5.50398e-93 0.616447 3.14122e-40 1.4044 -2.85813e-34 2.24604 4.53574e-30 1.7698 3.79262e-44 1.61391 -3.3967e-89 1.82795 5.66562e-41 2.54064 7.55291e-54 2.72845 0 0.680649 -2.81489e-37 2.19103 -3.75955e-314 1.47958 1.41433e-93 -0.177165 1.18238e-62 1.45466 -2.14294e-88 2.52869 1.50707e-45 1.99819 1.62904e-41 2.33468 4.83704e-49 3.2148 5.36848e-44 3.11693 6.8449e-39 1.41044 -6.05308e-54 1.37699 2.87303e-54 3.83119 -1.55631e-195 -0.1442 -3.75767e-33 1.77431 2.75548e-61 1.43247 -3.34517e-77 11.5679 0 1.97381 0 1.32098 -3.18757e-50 2.70496 -9.12083e-71 2.46886 3.66729e-256 2.64274 1.68977e-46 2.18306 1.37685e-28 2.36387 0 2.44919 2.0596e-59 2.6834 0 2.11913 3.01411e-41 0.25125 1.49708e-298 2.48493 -1.52016e-71 2.42291 0 0.729113 9.86529e-25 2.23035 1.77642e-39 1.85811 -1.04117e-75 1.49478 -2.24152e-79 2.41111 1.57497e-48 0.330959 9.46903e-27 2.0989 0 1.74388 5.8297e-63 2.07482 1.96012e-24 -0.604517 -3.12409e-208 2.7856 -1.15758e-68 1.16435 -7.90087e-33 2.15702 1.3367e-42 1.23208 -3.03768e-38 2.67815 1.7198e-27 1.25745 1.51047e-63 2.82627 -6.88498e-32 2.215 -2.34211e-66 1.45546 -1.12461e-35 1.18044 2.07789e-34 1.62676 1.01735e-39 -0.319017 -1.45514e-52 3.23387 1.23211e-41 2.43425 -1.35508e-71 2.36515 2.13832e-47 2.16054 3.85415e-260 2.14628 2.02542e-53 3.14443 0 2.6031 0 2.44761 4.25071e-46 3.69024 0 0.917614 1.59925e-47 3.38068 0 2.28392 1.4174e-56 2.17953 -1.53579e-45 1.7946 1.52944e-67 3.27313 -1.71241e-94 0.413001 -3.18137e-37 1.61381 2.38731e-40 0.578574 -5.46586e-34 2.40317 -1.48189e-75 2.10676 -3.53359e-35 2.51377 1.28957e-63 2.27521 2.15243e-44 2.66097 1.43583e-47 9.50606 0 1.90654 -2.62001e-47 3.85702 0 1.20536 1.56486e-45 4.48127 0 2.37098 3.89942e-67 1.86226 3.85976e-43 2.51162 0 3.01614 2.99283e-42 2.68872 0 2.406 0 1.70147 -2.42461e-46 -0.0213578 2.28117e-262 1.39272 6.6309e-46 10.5548 0 1.63758 1.30817e-269 2.4807 1.6796e-44 2.78664 -2.39951e-34 2.42534 0 9.17891 0 2.09957 4.6998e-34 2.86468 0 0.739657 -3.79256e-53 1.18789 1.44237e-55 0.662308 5.3024e-35 -0.365662 -3.49822e-260 2.61366 8.74956e-46 1.63843 -1.88721e-57 1.94483 -9.31131e-42 2.27379 1.85329e-32 3.0226 -1.69195e-50 4.04194 0 2.66374 2.15468e-27 2.75808 5.76358e-48 0.655133 -9.98175e-45 2.53719 7.45763e-48 1.04161 3.23221e-48 2.09723 4.36164e-46 0.883105 -3.39556e-31 3.82496 0 1.49126 -1.18767e-37 2.0335 -6.01522e-147 1.87261 1.54187e-46 3.25354 -6.41708e-64 1.91647 1.36785e-42 1.86625 1.6683e-43 2.56099 0 1.8385 -6.00138e-88 1.7215 6.18295e-94 0.374294 -6.58227e-49 1.7506 2.90493e-35 9.86588 0 2.16588 -1.16863e-39 1.8996 -4.9067e-64 1.57522 2.32471e-44 2.69059 3.79751e-57 1.77441 1.87564e-40 1.5503 2.26872e-44 1.95907 -2.27796e-33 2.58035 -3.55249e-203 8.35397 0 2.74347 0 2.58557 5.88575e-47 0.0276312 -8.9051e-67 2.5425 5.47109e-44 1.21872 4.32788e-39 2.47036 -6.60234e-72 3.60278 1.82543e-41 2.75323 -5.93423e-70 2.32506 0 0.839271 4.00246e-38 2.39475 1.51175e-46 2.5518 2.59306e-48 1.56296 -1.05201e-41 2.02783 3.02804e-58 4.86154 0 0.936307 1.12583e-42 1.86569 1.14377e-36 1.87033 1.23923e-42 3.66097 -7.61096e-36 3.56075 1.13514e-36 2.11576 9.45235e-39 2.72269 0 1.6791 -2.71568e-147 2.14679 3.35824e-30 2.69558 1.16679e-49 2.79547 -6.28956e-72 2.72016 -7.16864e-43 2.00626 3.83469e-25 1.6351 5.33432e-49 1.9972 0 10.2723 0 1.50447 1.02322e-52 2.82084 0 2.3971 0 2.23338 -2.82831e-38 1.90651 2.21717e-42 2.40145 -3.308e-89 2.38175 7.63274e-64 3.37205 7.68489e-165 2.62591 -6.39867e-72 2.50441 0 4.35873 1.71404e-56 3.21445 -5.73922e-66 1.16255 -3.26341e-84 1.29661 -9.2493e-34 0.584044 1.1215e-40 2.59622 -1.7573e-67 1.76408 1.03737e-43 1.60808 -8.38456e-65 2.25711 1.27322e-41 2.76467 0 1.55413 -2.23019e-68 3.13489 -9.39452e-71 1.23747 9.45892e-64 1.61399 7.83394e-31 -1.56447 5.50398e-93 0.947842 3.14122e-40 3.82984 -2.85813e-34 2.27447 4.53574e-30 1.8133 3.79262e-44 1.73956 -3.3967e-89 -0.258761 5.66562e-41 2.94072 7.55291e-54 2.47133 0 0.316437 -2.81489e-37 2.23384 -3.75955e-314 0.909808 1.41433e-93 -0.354423 -1.18238e-62 1.77126 -2.14294e-88 2.53298 1.50707e-45 1.98835 1.62904e-41 2.5345 4.83704e-49 1.50775 5.36848e-44 2.81048 6.8449e-39 0.592169 -9.5685e-54 1.02719 -2.87303e-54 -1.28171 -1.55631e-195 0.0307846 -3.75767e-33 1.36746 -2.75548e-61 1.40088 -3.34517e-77 11.8455 0 2.11093 0 1.76611 -3.18757e-50 2.55483 -9.12083e-71 4.27059 3.66729e-256 2.52945 1.68977e-46 2.07876 1.37685e-28 2.57967 0 2.47243 2.0596e-59 3.11683 0 1.99933 3.01411e-41 -0.320901 1.49708e-298 2.26234 -1.52016e-71 2.89975 0 0.807021 9.86529e-25 2.06761 1.77642e-39 -0.472432 -1.04117e-75 1.90936 -2.24152e-79 2.389 1.57497e-48 1.7175 9.46903e-27 2.01137 0 1.64552 5.8297e-63 1.74377 1.96012e-24 -1.12853 -3.12409e-208 2.85031 -1.15758e-68 0.8801 -7.90087e-33 2.10598 1.3367e-42 0.287928 -3.03768e-38 0.250491 1.7198e-27 0.661856 -1.51047e-63 0.19595 -6.88498e-32 1.96747 -2.34211e-66 -1.60965 -1.12461e-35 1.13207 2.07789e-34 1.69518 1.01735e-39 -1.19964 -1.45514e-52 2.10647 1.23211e-41 2.59136 -1.35508e-71 2.49158 2.13832e-47 1.55723 3.85415e-260 0.619626 2.02542e-53 3.16743 0 2.44832 0 2.41191 4.25071e-46 3.75651 0 1.12768 1.59925e-47 2.7605 0 1.9813 -1.4174e-56 0.357442 -1.53579e-45 1.62925 -1.52944e-67 3.31471 -1.71241e-94 -0.195631 -3.18137e-37 1.49371 2.38731e-40 2.12731 -5.46586e-34 1.5808 -1.48189e-75 1.3593 -3.53359e-35 2.33786 -1.28957e-63 2.12959 2.15243e-44 2.66316 1.43583e-47 9.41252 0 1.82632 -2.62001e-47 3.76887 0 1.33164 1.56486e-45 4.26963 0 2.16908 -3.89942e-67 2.04895 3.85976e-43 2.53851 0 2.46251 2.99283e-42 2.63816 0 2.95855 0 2.16385 -2.42461e-46 -0.526159 2.28117e-262 1.56776 6.6309e-46 10.4544 0 1.94877 1.30817e-269 2.38704 1.6796e-44 2.59479 -2.39951e-34 2.59146 0 9.22388 0 2.07433 4.6998e-34 2.79635 0 -0.233656 -3.79256e-53 1.74429 1.44237e-55 0.0803658 5.3024e-35 -0.519081 -3.49822e-260 2.58017 8.74956e-46 1.45858 -1.88721e-57 2.83147 -9.31131e-42 2.34105 1.85329e-32 2.86008 -1.69195e-50 4.15197 0 2.09238 2.15468e-27 2.90691 5.76358e-48 -0.238067 -9.98175e-45 2.49823 7.45763e-48 1.53543 3.23221e-48 2.02196 4.36164e-46 0.939828 -3.39556e-31 3.82771 0 0.458982 -1.18767e-37 -0.480028 -6.01522e-147 1.75992 1.54187e-46 2.73485 -6.41708e-64 0.818924 1.36785e-42 1.74288 1.6683e-43 2.51088 0 2.18821 -6.00138e-88 1.0854 6.18295e-94 0.0828385 -6.58227e-49 1.20244 2.90493e-35 9.87426 0 1.08669 -1.16863e-39 -0.463888 -4.9067e-64 1.26087 2.32471e-44 2.61555 3.79751e-57 1.92838 1.87564e-40 1.84873 2.26872e-44 1.73246 -2.27796e-33 2.12683 3.55249e-203 8.55424 0 1.76093 0 2.59523 5.88575e-47 -0.841146 -8.9051e-67 2.27744 5.47109e-44 -0.306786 4.32788e-39 2.27028 -6.60234e-72 3.32571 1.82543e-41 2.78143 -5.93423e-70 2.3405 0 0.546367 4.00246e-38 2.46687 1.51175e-46 2.60185 2.59306e-48 2.87502 -1.05201e-41 1.96469 3.02804e-58 -2.66555 0 1.06053 1.12583e-42 1.9125 1.14377e-36 2.06119 1.23923e-42 2.97719 -7.61096e-36 1.51732 1.13514e-36 2.13124 9.45235e-39 3.02534 0 2.51706 -2.71568e-147 2.09693 3.35824e-30 2.77532 1.16679e-49 2.82935 -6.28956e-72 2.10873 -7.16864e-43 1.00529 3.83469e-25 1.42594 5.33432e-49 0.490199 0 10.2552 0 1.45354 1.02322e-52 2.55423 0 2.51918 0 2.62019 -2.82831e-38 1.80474 2.21717e-42 2.3077 -3.308e-89 1.30738 -7.63274e-64 0.592584 7.68489e-165 2.73069 -6.39867e-72 2.5806 0 1.31217 1.71404e-56 1.51666 -5.73922e-66 0.98191 -3.26341e-84 -0.00490742 -9.2493e-34 0.261273 1.1215e-40 2.64849 -1.7573e-67 2.17519 1.03737e-43 1.44671 8.38456e-65 2.35874 1.27322e-41 2.95273 0 0.54428 -2.23019e-68 3.10775 -9.39452e-71 0.71598 5.89749e-64 1.37927 7.83394e-31 -1.4805 -5.50398e-93 1.16489 3.14122e-40 3.14174 -2.85813e-34 2.42893 4.53574e-30 1.69046 3.79262e-44 2.38466 -3.3967e-89 -0.427981 5.66562e-41 2.66729 7.55291e-54 2.5686 0 0.917361 -2.81489e-37 3.1233 -3.75955e-314 0.968048 1.41433e-93 1.45259 -1.18238e-62 2.61566 -2.14294e-88 2.63995 1.50707e-45 1.91793 1.62904e-41 2.531 4.83704e-49 0.476902 5.36848e-44 2.64795 6.8449e-39 0.778515 -9.5685e-54 2.61131 -2.87303e-54 -1.09219 -1.55631e-195 1.05848 -3.75767e-33 1.41318 -2.75548e-61 1.37182 -3.34517e-77 11.6445 0 2.71304 0 2.00453 -3.18757e-50 2.91215 -9.12083e-71 4.57934 3.66729e-256 2.53417 1.68977e-46 2.51254 1.37685e-28 2.57039 0 2.56851 2.0596e-59 2.92262 0 2.25878 3.01411e-41 -0.227372 1.49708e-298 2.91311 -1.52016e-71 2.98344 0 0.793118 9.86529e-25 2.03644 1.77642e-39 0.649797 -1.04117e-75 1.91964 -2.24152e-79 2.4505 1.57497e-48 1.64523 9.46903e-27 2.02774 0 1.58413 5.8297e-63 1.84794 1.96012e-24 2.44741 -3.12409e-208 2.80828 -1.15758e-68 0.0355288 -7.90087e-33 2.20298 1.3367e-42 0.476652 -3.03768e-38 0.283471 1.7198e-27 1.72205 -1.51047e-63 0.255228 -6.88498e-32 2.59626 -2.34211e-66 -1.94888 -1.12461e-35 1.32675 2.07789e-34 1.43697 1.01735e-39 -1.38922 -1.45514e-52 2.29635 1.23211e-41 3.12232 -1.35508e-71 2.49571 2.13832e-47 0.293548 3.85415e-260 0.803931 2.02542e-53 2.89023 0 2.5237 0 2.31532 4.25071e-46 3.56356 0 1.26211 1.59925e-47 2.94406 0 1.46041 -1.4174e-56 1.2432 -1.53579e-45 1.92225 -1.52944e-67 3.29283 -1.71241e-94 0.55929 -3.18137e-37 1.35094 2.38731e-40 2.85337 -5.46586e-34 1.82451 -1.48189e-75 1.28594 -3.53359e-35 1.56688 -1.28957e-63 2.18166 2.15243e-44 2.78037 1.43583e-47 9.59094 0 1.83798 -2.62001e-47 4.06543 0 1.67225 1.56486e-45 4.43595 0 2.50769 -3.89942e-67 1.79245 3.85976e-43 2.71226 0 2.28645 2.99283e-42 2.57763 0 3.00052 0 2.10022 -2.42461e-46 1.65786 2.28117e-262 1.32078 6.6309e-46 10.463 0 1.76867 1.30817e-269 2.46417 1.6796e-44 2.5833 -2.39951e-34 2.59948 0 9.20242 0 1.99404 4.6998e-34 2.8732 0 2.2962 -3.79256e-53 1.65195 1.44237e-55 0.53602 5.3024e-35 -0.633401 -3.49822e-260 2.6251 8.74956e-46 2.07656 -1.88721e-57 2.58169 -9.31131e-42 2.33356 1.85329e-32 3.03736 -1.69195e-50 3.79871 0 2.04174 2.15468e-27 2.86856 5.76358e-48 0.556473 -9.98175e-45 2.67546 7.45763e-48 1.8065 3.23221e-48 2.62165 4.36164e-46 3.22486 -3.39556e-31 4.16172 0 0.538844 -1.18767e-37 -4.72459 -6.01522e-147 2.14196 1.54187e-46 2.89111 -6.41708e-64 1.17772 1.36785e-42 1.72548 1.6683e-43 2.67626 0 1.98099 -6.00138e-88 1.08193 6.18295e-94 1.42123 -6.58227e-49 1.2402 2.90493e-35 9.80568 0 0.872405 -1.16863e-39 -0.335199 -4.9067e-64 1.55652 2.32471e-44 2.78564 3.79751e-57 1.72234 1.87564e-40 1.97639 2.26872e-44 1.98629 -2.27796e-33 1.88412 -3.55249e-203 8.53224 0 1.841 0 2.77661 5.88575e-47 -0.649525 -8.9051e-67 2.31942 5.47109e-44 -0.893512 4.32788e-39 2.8084 -6.60234e-72 3.12247 1.82543e-41 2.69822 -5.93423e-70 2.61517 0 2.47581 4.00246e-38 2.75353 1.51175e-46 2.53175 2.59306e-48 2.65672 -1.05201e-41 1.95933 3.02804e-58 -2.40239 0 1.15021 1.12583e-42 1.82992 1.14377e-36 2.02078 1.23923e-42 2.21929 -7.61096e-36 1.83439 1.13514e-36 2.25365 9.45235e-39 3.02804 0 2.63432 -2.71568e-147 2.65919 3.35824e-30 2.85184 1.16679e-49 3.0324 -6.28956e-72 0.511925 -7.16864e-43 1.16425 3.83469e-25 1.54307 5.33432e-49 1.32841 0 10.2375 0 1.70402 1.02322e-52 2.54513 0 2.48164 0 2.11658 -2.82831e-38 1.74635 2.21717e-42 2.03615 -3.308e-89 1.34826 -7.63274e-64 2.47876 7.68489e-165 2.77547 -6.39867e-72 2.83392 0 1.82727 1.71404e-56 -0.48918 -5.73922e-66 2.62903 -3.26341e-84 -0.130639 -9.2493e-34 0.727182 1.1215e-40 3.34858 -1.7573e-67 1.89152 1.03737e-43 1.42442 8.38456e-65 2.23222 1.27322e-41 3.01581 0 0.944961 -2.23019e-68 3.28972 -9.39452e-71 0.695281 5.89749e-64 0.251154 7.83394e-31 -1.16569 5.50398e-93 0.969915 3.14122e-40 3.06891 -2.85813e-34 -1.48619 4.53574e-30 1.81183 3.79262e-44 2.40955 -3.3967e-89 -0.113716 5.66562e-41 2.18104 7.55291e-54 2.5939 0 -1.2704 -2.81489e-37 3.03193 -3.75955e-314 1.12534 -1.41433e-93 0.593721 -1.18238e-62 2.51936 -2.14294e-88 2.44128 1.50707e-45 1.99865 1.62904e-41 2.46315 4.83704e-49 0.955902 5.36848e-44 2.68396 6.8449e-39 0.609545 -9.5685e-54 2.26566 -2.87303e-54 -1.17405 -1.55631e-195 0.226657 -3.75767e-33 1.48315 -2.75548e-61 1.39813 -3.34517e-77 11.5727 0 2.82348 0 2.11131 -3.18757e-50 2.92039 -9.12083e-71 4.11696 3.66729e-256 2.68041 1.68977e-46 -1.72961 1.37685e-28 2.6746 0 2.52699 2.0596e-59 3.20951 0 2.15575 3.01411e-41 -1.89955 1.49708e-298 2.85984 -1.52016e-71 3.09136 0 0.287743 9.86529e-25 1.88814 1.77642e-39 1.2821 -1.04117e-75 2.19789 -2.24152e-79 2.70519 1.57497e-48 0.264477 9.46903e-27 2.04784 0 1.5674 5.8297e-63 -1.8369 1.96012e-24 2.37972 -3.12409e-208 2.87297 -1.15758e-68 0.495102 -7.90087e-33 2.06397 1.3367e-42 0.729225 -3.03768e-38 -1.90857 1.7198e-27 1.33687 -1.51047e-63 -0.486619 -6.88498e-32 2.63865 -2.34211e-66 -1.6059 -1.12461e-35 1.18547 2.07789e-34 1.55119 1.01735e-39 -1.4605 -1.45514e-52 2.2665 1.23211e-41 2.88808 -1.35508e-71 2.28442 2.13832e-47 -0.830856 3.85415e-260 0.60363 2.02542e-53 2.90165 0 2.66019 0 2.32521 4.25071e-46 3.30774 0 1.31154 1.59925e-47 2.93687 0 1.72601 -1.4174e-56 1.75883 -1.53579e-45 2.07639 -1.52944e-67 3.28836 1.71241e-94 0.369003 -3.18137e-37 1.4962 2.38731e-40 2.78915 -5.46586e-34 1.88034 -1.48189e-75 1.16248 -3.53359e-35 1.52417 -1.28957e-63 2.28698 2.15243e-44 2.68532 1.43583e-47 9.58316 0 1.74875 -2.62001e-47 3.6513 0 1.44555 1.56486e-45 4.24007 0 2.5837 -3.89942e-67 2.01829 3.85976e-43 2.55897 0 -1.26883 2.99283e-42 2.57609 0 2.97318 0 0.591424 -2.42461e-46 1.2773 2.28117e-262 1.30222 6.6309e-46 10.4177 0 2.10557 1.30817e-269 2.45665 1.6796e-44 -1.86274 -2.39951e-34 2.64134 0 9.00513 0 1.8695 4.6998e-34 2.70302 0 2.07037 -3.79256e-53 1.28252 1.44237e-55 0.168995 5.3024e-35 -0.700396 -3.49822e-260 2.48258 8.74956e-46 2.24731 -1.88721e-57 2.63778 -9.31131e-42 -1.46375 1.85329e-32 2.78599 -1.69195e-50 3.36657 0 -1.87904 2.15468e-27 2.90073 5.76358e-48 0.536261 -9.98175e-45 2.38021 7.45763e-48 1.93696 3.23221e-48 2.43053 4.36164e-46 2.8654 -3.39556e-31 4.04927 0 -0.492249 -1.18767e-37 -4.91469 -6.01522e-147 1.89948 1.54187e-46 2.82384 -6.41708e-64 0.281199 1.36785e-42 1.76799 1.6683e-43 2.36208 0 2.15958 -6.00138e-88 1.69113 -6.18295e-94 1.14819 -6.58227e-49 1.27666 2.90493e-35 9.79052 0 0.507228 -1.16863e-39 -1.2786 -4.9067e-64 1.60733 2.32471e-44 2.59638 3.79751e-57 1.88634 1.87564e-40 1.92987 2.26872e-44 0.945895 -2.27796e-33 1.8016 -3.55249e-203 8.47767 0 2.24568 0 2.61239 5.88575e-47 -0.70156 -8.9051e-67 2.47035 5.47109e-44 -0.762198 4.32788e-39 2.70348 -6.60234e-72 2.52039 1.82543e-41 2.70053 -5.93423e-70 2.7258 0 1.21313 4.00246e-38 2.45477 1.51175e-46 2.83143 2.59306e-48 2.37572 -1.05201e-41 2.06645 3.02804e-58 -2.98285 0 1.16055 1.12583e-42 2.05946 1.14377e-36 2.06585 1.23923e-42 2.16182 -7.61096e-36 1.38583 1.13514e-36 2.31675 9.45235e-39 3.08755 0 2.75288 -2.71568e-147 -0.545762 3.35824e-30 2.73434 1.16679e-49 3.02051 -6.28956e-72 0.630297 -7.16864e-43 1.21708 3.83469e-25 1.60354 5.33432e-49 -0.215859 0 10.113 0 1.26976 1.02322e-52 2.70293 0 2.54671 0 2.05637 -2.82831e-38 1.80208 2.21717e-42 2.22904 3.308e-89 1.43981 -7.63274e-64 -0.346839 7.68489e-165 2.84175 -6.39867e-72 2.93914 0 -0.623629 1.71404e-56 -0.430542 -5.73922e-66 2.63423 -3.26341e-84 -0.348045 -9.2493e-34 0.696409 1.1215e-40 2.88507 -1.7573e-67 2.03992 1.03737e-43 1.76472 8.38456e-65 2.28876 1.27322e-41 3.09272 0 0.0834358 -2.23019e-68 3.43397 -9.39452e-71 1.06771 5.89749e-64 0.113136 7.83394e-31 3.4524 5.50398e-93 1.11043 3.14122e-40 2.0079 -2.85813e-34 2.52503 4.53574e-30 1.67478 3.79262e-44 2.5877 -3.3967e-89 0.76131 5.66562e-41 2.32012 7.55291e-54 2.59422 0 0.74817 -2.81489e-37 3.0489 -3.75955e-314 1.01606 -1.41433e-93 -0.0324363 -1.18238e-62 2.81756 -2.14294e-88 2.69836 1.50707e-45 1.86545 1.62904e-41 2.58407 4.83704e-49 1.37295 5.36848e-44 2.60848 6.8449e-39 1.10629 -9.5685e-54 2.03223 -2.87303e-54 -1.12171 -1.55631e-195 2.41674 -3.75767e-33 1.68165 -2.75548e-61 1.70531 -3.34517e-77 11.7616 0 2.74228 0 2.05504 -3.18757e-50 2.9324 -9.12083e-71 4.21819 3.66729e-256 2.48038 1.68977e-46 2.23154 1.37685e-28 2.59608 0 2.52391 2.0596e-59 3.17796 0 2.27837 3.01411e-41 2.67147 1.49708e-298 2.93798 -1.52016e-71 2.90233 0 0.828126 9.86529e-25 1.829 1.77642e-39 2.12263 -1.04117e-75 2.3303 -2.24152e-79 2.46608 1.57497e-48 0.706374 9.46903e-27 2.10595 0 1.3282 5.8297e-63 1.68495 1.96012e-24 1.28627 -3.12409e-208 2.77701 -1.15758e-68 0.633247 -7.90087e-33 1.92101 1.3367e-42 0.692479 -3.03768e-38 0.477418 1.7198e-27 1.33845 -1.51047e-63 0.787099 -6.88498e-32 2.5632 -2.34211e-66 0.90524 -1.12461e-35 1.44961 2.07789e-34 1.4031 1.01735e-39 -1.65827 -1.45514e-52 2.48981 1.23211e-41 2.83799 -1.35508e-71 2.23225 2.13832e-47 -0.546834 3.85415e-260 0.881728 2.02542e-53 3.00296 0 2.55536 0 2.29536 4.25071e-46 3.21959 0 1.02969 1.59925e-47 1.34513 0 1.6426 -1.4174e-56 0.911225 -1.53579e-45 2.08007 -1.52944e-67 3.42337 1.71241e-94 1.54907 -3.18137e-37 1.46827 2.38731e-40 2.64279 -5.46586e-34 1.64339 -1.48189e-75 1.38939 -3.53359e-35 1.53977 -1.28957e-63 2.22446 2.15243e-44 2.58236 1.43583e-47 9.68218 0 2.06181 -2.62001e-47 3.53112 0 1.46702 1.56486e-45 4.21097 0 2.37013 -3.89942e-67 1.96324 3.85976e-43 2.4974 0 1.85645 2.99283e-42 2.80323 0 2.96692 0 1.05338 -2.42461e-46 0.246576 2.28117e-262 1.40321 6.6309e-46 10.5644 0 1.01129 1.30817e-269 2.54042 1.6796e-44 2.84986 -2.39951e-34 2.64489 0 9.08616 0 1.95278 4.6998e-34 2.71252 0 3.12196 -3.79256e-53 1.26324 1.44237e-55 0.498746 5.3024e-35 2.43176 -3.49822e-260 2.56858 8.74956e-46 2.13922 -1.88721e-57 1.76994 -9.31131e-42 2.25399 1.85329e-32 2.93813 -1.69195e-50 2.29213 0 2.37079 2.15468e-27 2.90333 5.76358e-48 1.43284 -9.98175e-45 2.65491 7.45763e-48 1.74432 3.23221e-48 2.58962 4.36164e-46 2.93298 -3.39556e-31 4.03978 0 0.49409 -1.18767e-37 -0.490143 6.01522e-147 1.82753 1.54187e-46 2.31506 -6.41708e-64 1.18074 1.36785e-42 1.84331 1.6683e-43 2.59104 0 2.24225 -6.00138e-88 1.68902 -6.18295e-94 0.987718 -6.58227e-49 1.3188 2.90493e-35 9.83776 0 0.533991 -1.16863e-39 -1.09651 -4.9067e-64 1.66982 2.32471e-44 2.80057 3.79751e-57 1.94779 1.87564e-40 1.78529 2.26872e-44 1.69909 -2.27796e-33 2.35839 -3.55249e-203 8.63802 0 -0.374219 0 2.62865 5.88575e-47 2.92058 -8.9051e-67 2.35876 5.47109e-44 -0.459804 4.32788e-39 2.79666 -6.60234e-72 3.08421 1.82543e-41 2.97012 -5.93423e-70 2.77211 0 2.17567 4.00246e-38 2.42841 1.51175e-46 2.83185 2.59306e-48 1.71181 -1.05201e-41 1.82335 3.02804e-58 -2.94515 0 1.2469 1.12583e-42 1.92252 1.14377e-36 1.82231 1.23923e-42 2.3088 -7.61096e-36 3.28019 1.13514e-36 2.22655 9.45235e-39 3.16297 0 2.53058 2.71568e-147 2.26627 3.35824e-30 2.87658 1.16679e-49 3.08802 -6.28956e-72 1.20468 -7.16864e-43 1.98841 3.83469e-25 1.37072 5.33432e-49 0.0477354 0 10.2261 0 1.00767 1.02322e-52 2.57473 0 2.4796 0 2.41596 -2.82831e-38 1.82998 2.21717e-42 2.47879 3.308e-89 1.63256 -7.63274e-64 0.442708 7.68489e-165 2.91421 -6.39867e-72 2.74015 0 0.904956 1.71404e-56 1.02743 -5.73922e-66 2.8614 -3.26341e-84 0.680529 -9.2493e-34 0.177984 1.1215e-40 3.08762 -1.7573e-67 2.01943 1.03737e-43 1.57127 8.38456e-65 2.17566 1.27322e-41 2.95444 0 0.0776446 -2.23019e-68 3.40804 -9.39452e-71 1.12124 5.89749e-64 1.2342 7.83394e-31 0.281807 5.50398e-93 1.00036 3.14122e-40 2.39147 2.8582e-34 2.24697 4.53574e-30 1.84923 -3.79262e-44 2.28371 3.3967e-89 2.02515 5.66562e-41 1.94716 7.55291e-54 2.51591 0 0.997454 2.81489e-37 2.88131 -3.75955e-314 0.946296 -1.41433e-93 -0.282657 -1.18238e-62 2.79491 2.14294e-88 2.61951 -1.50707e-45 1.74291 -1.62904e-41 2.1503 -4.83703e-49 1.00878 5.36848e-44 2.9181 -6.8449e-39 0.721519 -9.5685e-54 2.14263 -2.87303e-54 3.02889 -1.55631e-195 0.718322 3.75767e-33 1.86366 -2.75548e-61 1.59892 3.34517e-77 11.837 0 2.70943 0 2.05554 3.18757e-50 2.90787 -9.12083e-71 4.062 3.66729e-256 2.60065 -1.68977e-46 2.27951 1.37685e-28 2.5586 0 2.13199 2.0596e-59 2.60563 0 2.07088 -3.01411e-41 0.520843 -1.49708e-298 2.89743 -1.52016e-71 2.54949 0 0.451145 9.86529e-25 1.88059 -1.77642e-39 1.97334 -1.04117e-75 2.44036 2.24152e-79 2.64527 -1.57497e-48 0.665187 9.46903e-27 2.12307 0 1.38805 5.8297e-63 1.75905 1.96012e-24 1.41763 -3.12409e-208 2.74354 -1.15758e-68 0.104916 -7.90087e-33 2.11281 -1.3367e-42 0.688217 3.03768e-38 0.665755 1.7198e-27 1.4042 -1.51047e-63 0.80411 -6.88498e-32 2.43406 -2.34211e-66 0.835908 1.12461e-35 1.60064 -2.07789e-34 1.39006 -1.01735e-39 -1.63839 -1.45514e-52 3.27437 1.23211e-41 2.83047 -1.35508e-71 2.19551 -2.1383e-47 -0.679439 3.85415e-260 0.570385 2.02542e-53 2.7477 0 2.61576 0 2.23745 -4.25071e-46 3.36352 0 1.33617 -1.59925e-47 1.439 0 1.45714 -1.4174e-56 0.897173 -1.53579e-45 2.00526 -1.52944e-67 3.50916 1.71241e-94 0.560576 -3.18137e-37 1.42247 2.38731e-40 2.79942 -5.46586e-34 2.60727 -1.48189e-75 2.13779 -3.53359e-35 1.71665 -1.28957e-63 2.13049 -2.15243e-44 2.81569 -1.43583e-47 9.55493 0 1.90183 -2.62001e-47 4.01347 0 1.38448 -1.56486e-45 4.36911 0 2.46201 -3.89942e-67 1.87915 -3.85976e-43 2.30375 0 1.54218 2.99283e-42 2.74018 0 2.89896 0 1.06027 2.42508e-46 0.794545 2.28117e-262 1.57471 -6.6309e-46 10.5941 0 0.572534 1.30817e-269 2.29245 -1.6796e-44 2.85791 -2.39951e-34 2.38851 0 9.18599 0 2.01017 -4.6998e-34 2.7121 0 3.30792 -3.79256e-53 1.26003 1.44237e-55 0.578255 5.3024e-35 -0.729927 -3.49822e-260 2.51442 -8.74956e-46 2.16478 -1.88721e-57 1.54833 -9.31115e-42 2.40349 1.85329e-32 2.88006 1.69195e-50 2.33208 0 2.2982 2.15468e-27 2.69622 -5.76358e-48 1.61119 -9.98175e-45 2.33511 -7.45763e-48 1.95808 -3.23221e-48 2.48619 4.36164e-46 2.78367 -3.39556e-31 4.00902 0 0.549824 -1.18767e-37 -4.02552 6.01522e-147 1.86809 -1.56163e-46 2.13062 -6.41708e-64 2.59354 1.36785e-42 1.72593 -1.6683e-43 2.44507 0 1.99204 6.00138e-88 1.58753 -6.18295e-94 1.25167 -6.58227e-49 0.668077 2.90493e-35 9.76099 0 0.912919 1.16858e-39 -0.260048 -4.9067e-64 1.63034 2.32266e-44 2.62446 3.79751e-57 1.55357 -1.87564e-40 1.75525 -2.26872e-44 1.74267 2.27796e-33 2.4423 -3.55249e-203 8.37841 0 -0.832983 0 2.43164 -5.88575e-47 0.306327 -8.9051e-67 2.21395 -5.47109e-44 -0.249065 4.32788e-39 2.9085 -6.60234e-72 2.93978 1.82543e-41 2.77574 -5.93423e-70 2.4794 0 2.06358 4.67645e-38 2.59391 -1.51175e-46 2.56856 -2.59306e-48 0.315352 -1.05201e-41 1.90568 3.02804e-58 5.14015 0 1.30776 -1.12583e-42 1.59069 -1.14377e-36 1.80275 -1.23923e-42 2.0419 1.07647e-34 3.48446 1.13581e-36 1.89689 -9.45264e-39 2.72562 0 1.89816 2.71568e-147 2.11969 3.35824e-30 2.72268 -1.16679e-49 2.96186 -6.28956e-72 1.32122 -7.16864e-43 1.86702 3.83469e-25 1.63677 -5.33432e-49 -0.216727 0 10.171 0 0.998943 1.02322e-52 2.62259 0 2.28254 0 2.39827 2.82831e-38 1.73343 -2.21717e-42 2.21596 3.308e-89 1.30524 -7.63274e-64 0.584344 7.68489e-165 2.66289 -6.39867e-72 2.67156 0 0.974135 1.71404e-56 0.812295 -5.73922e-66 2.68609 3.26341e-84 0.69472 9.2493e-34 0.164436 1.1215e-40 2.9613 -1.7573e-67 1.9069 -1.03737e-43 1.60572 8.38456e-65 2.26578 -1.27322e-41 2.75317 0 0.0574894 -2.23019e-68 3.52516 -9.39452e-71 1.76194 5.89749e-64 1.1893 7.83394e-31 0.00824585 5.50398e-93 1.07136 3.14122e-40 2.58056 2.8582e-34 2.40776 4.53574e-30 1.88772 -3.79262e-44 2.58692 3.3967e-89 2.14183 5.66562e-41 1.42701 7.55291e-54 2.61674 0 1.05848 2.81489e-37 2.81742 -3.75955e-314 1.31884 -1.41433e-93 -0.110182 -1.18238e-62 2.7355 2.14294e-88 2.5848 -1.50707e-45 2.00332 -1.62904e-41 2.61972 -4.83703e-49 0.231182 5.36848e-44 3.1807 -6.8449e-39 1.73723 -9.5685e-54 2.38832 -2.87303e-54 3.63896 -1.55631e-195 0.712194 3.75767e-33 1.93157 -2.75548e-61 1.37531 3.34517e-77 -9.67878 0 2.95554 0 2.14734 3.18757e-50 2.7013 -9.12083e-71 3.21326 3.66729e-256 2.56794 -1.68977e-46 2.67937 1.37685e-28 2.68351 0 2.14791 2.0596e-59 2.76845 0 2.24366 -3.01411e-41 0.409598 -1.49708e-298 3.12453 -1.52016e-71 2.58922 0 1.87405 9.86529e-25 1.83253 -1.77642e-39 1.9425 -1.04117e-75 2.30444 2.24152e-79 2.63523 -1.57497e-48 2.57526 9.46903e-27 2.21213 0 1.33728 5.8297e-63 2.12439 1.96012e-24 1.49472 -3.12409e-208 2.78846 -1.15758e-68 0.732238 -7.90087e-33 2.05879 -1.3367e-42 1.08873 3.03768e-38 0.695282 1.7198e-27 1.37488 -1.51047e-63 0.401011 -6.88498e-32 2.51289 -2.34211e-66 2.59962 1.12461e-35 1.53273 -2.07789e-34 1.76051 -1.01735e-39 -1.39304 -1.45514e-52 3.22813 1.23211e-41 2.93781 -1.35508e-71 2.32406 -2.1383e-47 -0.221788 3.85415e-260 0.519468 2.02542e-53 3.15698 0 2.84454 0 2.50697 -4.25071e-46 -2.14987 0 1.31182 -1.59925e-47 0.107148 0 0.256651 -1.4174e-56 1.1738 -1.53579e-45 -0.290881 -1.52944e-67 -0.618461 1.71241e-94 0.893991 -3.18137e-37 1.57728 2.38731e-40 2.40621 -5.46586e-34 2.59186 -1.48189e-75 2.00284 -3.53359e-35 1.05651 -1.28957e-63 2.22613 -2.15243e-44 2.63033 -1.43583e-47 -7.36619 0 1.99492 -2.62001e-47 -1.74225 0 1.43064 -1.56486e-45 -1.79547 0 2.39547 -3.89942e-67 1.99417 -3.85976e-43 -0.650888 0 1.84746 2.99283e-42 2.62179 0 2.85542 0 1.23168 2.42508e-46 1.76387 2.28117e-262 1.40609 -6.6309e-46 -7.55353 0 0.270476 1.30817e-269 2.42461 -1.6796e-44 2.66394 -2.39951e-34 2.14658 0 -7.61573 0 1.93789 -4.6998e-34 2.79715 0 3.35461 -3.79256e-53 0.919059 1.44237e-55 2.23398 5.3024e-35 0.0474517 -3.49822e-260 2.66796 -8.74956e-46 2.27243 -1.88721e-57 1.4454 -9.31115e-42 2.09187 1.85329e-32 2.79338 1.69195e-50 -1.17767 0 2.4589 2.15468e-27 2.92631 -5.76358e-48 1.51624 -9.98175e-45 2.54393 -7.45763e-48 1.77485 -3.23221e-48 -0.55941 4.36164e-46 2.59763 -3.39556e-31 -1.2064 0 0.478758 -1.18767e-37 -3.80909 6.01522e-147 1.70541 -1.56163e-46 -1.16842 -6.41708e-64 0.81392 1.36785e-42 1.85197 -1.6683e-43 2.54124 0 2.1358 6.00138e-88 1.37159 -6.18295e-94 2.39706 -6.58227e-49 1.55505 2.90493e-35 -7.67739 0 1.01906 1.16858e-39 0.525953 -4.9067e-64 1.69114 2.32266e-44 2.85673 3.79751e-57 1.91033 -1.87564e-40 1.96234 -2.26872e-44 2.87322 2.27796e-33 2.79447 -3.55249e-203 -5.89012 0 1.01164 0 2.67434 -5.88575e-47 0.242342 -8.9051e-67 2.4037 -5.47109e-44 2.20061 4.32788e-39 2.71013 -6.60234e-72 1.48511 1.82543e-41 2.98117 -5.93423e-70 2.61654 0 2.22076 4.67645e-38 2.41115 -1.51175e-46 2.65129 -2.59306e-48 1.6455 -1.05201e-41 1.98002 3.02804e-58 5.28884 0 1.19893 -1.12583e-42 1.71408 -1.14377e-36 2.12909 -1.23923e-42 1.67927 1.07647e-34 3.34706 1.13581e-36 2.17512 -9.45264e-39 2.88802 0 1.83463 2.71568e-147 2.61686 3.35824e-30 2.88651 -1.16679e-49 2.84005 -6.28956e-72 1.31803 -7.16864e-43 2.2704 3.83469e-25 1.65244 -5.33432e-49 0.136073 0 -7.96314 0 1.33921 1.02322e-52 2.86795 0 2.38471 0 2.40313 2.82831e-38 2.09121 -2.21717e-42 0.555281 3.308e-89 1.80001 -7.63274e-64 2.74665 7.68489e-165 2.68078 -6.39867e-72 2.83792 0 1.5358 1.71404e-56 0.888748 -5.73922e-66 2.72901 3.26341e-84 0.657693 9.2493e-34 0.517909 1.1215e-40 3.08926 -1.7573e-67 2.13659 -1.03737e-43 0.19819 8.38456e-65 2.58871 -1.27322e-41 2.64648 0 0.929318 -2.23019e-68 3.48052 -9.39452e-71 1.01736 5.89749e-64 1.49531 7.83394e-31 3.70663 5.50398e-93 1.56898 3.14122e-40 2.74107 2.8582e-34 2.48774 4.53574e-30 1.84763 -3.79262e-44 2.66573 3.3967e-89 1.88354 5.66562e-41 2.69992 7.55291e-54 2.58616 0 1.06908 2.81489e-37 3.09911 -3.75955e-314 1.39757 1.41433e-93 -0.231529 1.18238e-62 2.71556 2.14294e-88 2.68213 -1.50707e-45 1.91949 -1.62904e-41 2.33735 -4.83703e-49 0.724433 5.36848e-44 3.19723 -6.8449e-39 0.828582 -6.05308e-54 1.80542 2.87303e-54 3.07154 -1.55631e-195 2.29875 3.75767e-33 1.36144 2.75548e-61 1.67042 3.34517e-77 11.6631 0 2.9339 0 2.15127 3.18757e-50 2.98351 -9.12083e-71 3.35565 3.66729e-256 2.8456 -1.68977e-46 2.74781 1.37685e-28 2.37565 0 2.35607 2.0596e-59 2.60825 0 2.22889 -3.01411e-41 2.82741 -1.49708e-298 2.888 -1.52016e-71 2.56419 0 1.71182 9.86529e-25 1.93983 -1.77642e-39 1.78757 -1.04117e-75 2.29167 2.24152e-79 2.64078 -1.57497e-48 2.84975 9.46903e-27 1.96338 0 1.27338 5.8297e-63 2.06742 1.96012e-24 1.42915 -3.12409e-208 2.72637 -1.15758e-68 1.80687 -7.90087e-33 1.89432 -1.3367e-42 1.08734 3.03768e-38 0.963637 1.7198e-27 0.267802 1.51047e-63 0.328224 -6.88498e-32 2.73424 -2.34211e-66 3.11575 1.12461e-35 1.69453 -2.07789e-34 1.91828 -1.01735e-39 -1.56223 -1.45514e-52 3.58004 1.23211e-41 2.83245 -1.35508e-71 2.31427 -2.1383e-47 -0.194839 3.85415e-260 0.552558 2.02542e-53 3.12994 0 2.73751 0 2.34155 -4.25071e-46 3.28804 0 1.09515 -1.59925e-47 1.71476 0 1.53594 1.4174e-56 1.22591 -1.53579e-45 1.98109 1.52944e-67 3.48782 -1.71241e-94 1.73401 -3.18137e-37 1.49707 2.38731e-40 2.11123 -5.46586e-34 -0.868027 -1.48189e-75 2.13968 -3.53359e-35 1.75277 1.28957e-63 2.49955 -2.15243e-44 2.77114 -1.43583e-47 9.5922 0 1.84363 -2.62001e-47 4.06767 0 1.59129 -1.56486e-45 4.21564 0 -0.516273 3.89942e-67 1.97971 -3.85976e-43 2.45211 0 1.82773 2.99283e-42 2.83531 0 2.88648 0 0.972384 2.42508e-46 1.70276 2.28117e-262 1.48076 -6.6309e-46 10.5575 0 0.390172 1.30817e-269 2.71258 -1.6796e-44 2.61516 -2.39951e-34 2.19882 0 9.22722 0 1.9627 -4.6998e-34 2.79254 0 1.29516 -3.79256e-53 1.18341 1.44237e-55 2.03886 5.3024e-35 2.13622 -3.49822e-260 2.67568 -8.74956e-46 2.27076 -1.88721e-57 1.51426 -9.31115e-42 2.36113 1.85329e-32 2.93151 1.69195e-50 -0.54635 0 2.24672 2.15468e-27 2.72206 -5.76358e-48 1.7545 -9.98175e-45 2.40951 -7.45763e-48 1.75248 -3.23221e-48 -0.122705 4.36164e-46 2.84021 -3.39556e-31 4.24447 0 -0.244067 -1.18767e-37 -0.623301 6.01522e-147 1.60493 -1.56163e-46 -1.19403 -6.41708e-64 -0.323546 1.36785e-42 1.59055 -1.6683e-43 2.62253 0 2.02365 6.00138e-88 0.354968 6.18295e-94 2.25022 -6.58227e-49 1.39721 2.90493e-35 10.0264 0 1.08161 1.16858e-39 0.69322 -4.9067e-64 1.71441 2.32266e-44 2.85397 3.79751e-57 1.9399 -1.87564e-40 1.97987 -2.26872e-44 0.705758 2.27796e-33 2.91866 -3.55249e-203 8.46654 0 0.590008 0 2.74451 -5.88575e-47 3.61823 -8.9051e-67 2.33413 -5.47109e-44 2.06412 4.32788e-39 2.64613 -6.60234e-72 1.32188 1.82543e-41 2.9532 -5.93423e-70 2.79491 0 2.31617 4.67645e-38 2.43158 -1.51175e-46 2.76976 -2.59306e-48 1.96327 -1.05201e-41 1.94284 3.02804e-58 5.34023 0 1.37665 -1.12583e-42 1.79606 -1.14377e-36 2.08788 -1.23923e-42 1.97307 1.07647e-34 0.0738448 1.13581e-36 2.18547 -9.45264e-39 2.79732 0 1.80731 2.71568e-147 2.61163 3.35824e-30 2.84271 -1.16679e-49 2.80222 -6.28956e-72 1.32288 -7.16864e-43 0.561642 3.83469e-25 1.62114 -5.33432e-49 0.295465 0 10.3001 0 1.37387 1.02322e-52 2.84807 0 2.38508 0 2.27495 2.82831e-38 1.90269 -2.21717e-42 2.38986 -3.308e-89 2.2152 7.63274e-64 2.96938 7.68489e-165 2.79581 -6.39867e-72 2.92081 0 0.571133 1.71404e-56 -1.54396 -5.73922e-66 2.55256 3.26341e-84 0.72918 9.2493e-34 0.617651 1.1215e-40 3.08044 -1.7573e-67 2.25389 -1.03737e-43 1.70597 -8.38456e-65 2.43399 -1.27322e-41 2.5917 0 0.956212 -2.23019e-68 3.27569 -9.39452e-71 -1.82868 9.45892e-64 1.00418 7.83394e-31 2.96889 5.50398e-93 -0.795492 3.14122e-40 -1.23359 2.8582e-34 1.98317 4.53574e-30 -1.55791 -3.79262e-44 -1.11549 3.3967e-89 1.2057 5.66562e-41 -0.715804 7.55291e-54 -2.16821 0 0.43835 2.81489e-37 -1.70743 -3.75955e-314 0.578286 1.41433e-93 -0.181167 1.18238e-62 -1.63712 2.14294e-88 -1.87389 -1.50707e-45 -1.30817 -1.62904e-41 -1.88417 -4.83703e-49 0.872994 5.36848e-44 -2.26745 -6.8449e-39 0.674492 -6.05308e-54 0.315202 2.87303e-54 2.39572 -1.55631e-195 2.53701 3.75767e-33 0.283779 2.75548e-61 -0.872657 3.34517e-77 10.1213 0 -1.52819 0 -1.62431 3.18757e-50 -2.12067 -9.12083e-71 1.24018 3.66729e-256 -2.46752 -1.68977e-46 2.42611 1.37685e-28 -2.09929 0 -2.16903 2.0596e-59 -2.59958 0 -1.74932 -3.01411e-41 2.52315 -1.49708e-298 -1.98697 -1.52016e-71 -2.56836 0 1.35162 9.86529e-25 -1.55817 -1.77642e-39 1.39333 -1.04117e-75 -1.80027 2.24152e-79 -2.3053 -1.57497e-48 2.33525 9.46903e-27 -1.8147 0 -0.903464 5.8297e-63 1.57593 1.96012e-24 1.51182 -3.12409e-208 -2.60388 -1.15758e-68 0.12829 -7.90087e-33 -1.58503 -1.3367e-42 -0.0409069 3.03768e-38 0.22148 1.7198e-27 -0.234064 1.51047e-63 0.240602 -6.88498e-32 -1.67907 -2.34211e-66 1.73431 1.12461e-35 -0.824235 -2.07789e-34 -0.895934 -1.01735e-39 -2.20068 -1.45514e-52 -1.79826 1.23211e-41 -2.18506 -1.35508e-71 -1.69738 -2.1383e-47 -1.03592 3.85415e-260 0.679889 2.02542e-53 -2.54683 0 -1.97527 0 -1.82141 -4.25071e-46 2.0461 0 -0.736 -1.59925e-47 1.60514 0 -0.594885 1.4174e-56 -1.05549 -1.53579e-45 0.331661 1.52944e-67 1.17182 -1.71241e-94 1.0298 -3.18137e-37 -1.64644 2.38731e-40 -0.0734928 -5.46586e-34 -1.18012 -1.48189e-75 -0.935218 -3.53359e-35 0.15032 1.28957e-63 -1.56341 -2.15243e-44 -2.64177 -1.43583e-47 7.74922 0 -2.13463 -2.62001e-47 2.79394 0 -0.911459 -1.56486e-45 2.67554 0 -1.58994 3.89942e-67 -1.42935 -3.85976e-43 1.14499 0 1.29397 2.99283e-42 -2.26726 0 -2.50334 0 -0.684958 2.42508e-46 3.02967 2.28117e-262 -0.868142 -6.6309e-46 8.11737 0 0.573835 1.30817e-269 -2.1054 -1.6796e-44 2.66779 -2.39951e-34 -2.19895 0 7.70492 0 -0.0167316 -4.6998e-34 -2.40405 0 0.996768 -3.79256e-53 -0.0980598 1.44237e-55 1.75862 5.3024e-35 1.1066 -3.49822e-260 -2.50961 -8.74956e-46 -1.63934 -1.88721e-57 1.13697 -9.31115e-42 1.77525 1.85329e-32 -2.80417 1.69195e-50 -0.607644 0 2.0874 2.15468e-27 -2.74229 -5.76358e-48 0.166323 -9.98175e-45 -1.94671 -7.45763e-48 -1.19221 -3.23221e-48 -0.317443 4.36164e-46 -0.69665 -3.39556e-31 2.19214 0 0.628743 -1.18767e-37 -1.82165 6.01522e-147 -1.9779 -1.56163e-46 -1.76268 -6.41708e-64 -1.99373 1.36785e-42 -0.844359 -1.6683e-43 -1.69171 0 -1.692 6.00138e-88 -0.549758 6.18295e-94 1.80798 -6.58227e-49 0.299139 2.90493e-35 8.04506 0 -0.314116 1.16858e-39 0.180729 -4.9067e-64 -1.17336 2.32266e-44 -2.32339 3.79751e-57 -1.13109 -1.87564e-40 -1.19779 -2.26872e-44 0.448539 2.27796e-33 1.29462 -3.55249e-203 6.27257 0 0.254717 0 -1.96171 -5.88575e-47 1.11281 -8.9051e-67 -1.8786 -5.47109e-44 1.22355 4.32788e-39 -2.02715 -6.60234e-72 1.07478 1.82543e-41 -2.68792 -5.93423e-70 -1.85078 0 1.69994 4.67645e-38 -2.08681 -1.51175e-46 -2.26765 -2.59306e-48 -0.00321925 -1.05201e-41 -1.87948 3.02804e-58 4.36391 0 -0.868316 -1.12583e-42 -0.974874 -1.14377e-36 -1.60319 -1.23923e-42 1.8729 1.07647e-34 -0.0244728 1.13581e-36 -1.63185 -9.45264e-39 -2.89515 0 -1.98321 2.71568e-147 2.4213 3.35824e-30 -2.53837 -1.16679e-49 -2.32535 -6.28956e-72 -0.161709 -7.16864e-43 0.143097 3.83469e-25 -0.985893 -5.33432e-49 -0.282867 0 8.1956 0 -1.23372 1.02322e-52 -2.30562 0 -2.00896 0 -0.599606 2.82831e-38 -1.39283 -2.21717e-42 0.0851401 -3.308e-89 1.18029 7.63274e-64 1.39068 7.68489e-165 -2.41705 -6.39867e-72 -1.96206 0 0.650035 1.71404e-56 -1.66562 -5.73922e-66 -0.913956 3.26341e-84 0.505511 9.2493e-34 0.547712 1.1215e-40 -2.39508 -1.7573e-67 -1.38091 -1.03737e-43 0.0814477 -8.38456e-65 -1.56715 -1.27322e-41 -2.4308 0 0.512514 -2.23019e-68 -2.68502 -9.39452e-71 -1.89298 9.45892e-64 0.719131 7.83394e-31 2.79947 5.50398e-93 -0.889467 3.14122e-40 -1.54279 2.8582e-34 2.10044 4.53574e-30 -1.491 -3.79262e-44 -1.11601 3.3967e-89 -0.0320452 5.66562e-41 -0.715607 7.55291e-54 -2.30921 0 0.475863 2.81489e-37 -1.78275 3.75955e-314 -1.16464 1.41433e-93 -0.0373757 1.18238e-62 -1.49644 2.14294e-88 -2.09097 -1.50707e-45 -1.43698 -1.62904e-41 -2.12849 -4.83703e-49 -0.0349957 5.36848e-44 -2.32902 -6.8449e-39 -0.027909 -6.05308e-54 0.0699602 2.87303e-54 1.68482 -1.55631e-195 2.39879 3.75767e-33 0.228146 2.75548e-61 -0.938909 3.34517e-77 9.85488 0 -1.7531 0 -1.60547 3.18757e-50 -2.20665 -9.12083e-71 1.3985 3.66729e-256 -2.32717 -1.68977e-46 1.79775 1.37685e-28 -2.00035 0 -2.07877 2.0596e-59 -2.72395 0 -1.91681 -3.01411e-41 2.59838 1.49708e-298 -2.04212 -1.52016e-71 -2.43201 0 1.30714 9.86529e-25 -1.58633 -1.77642e-39 1.55315 -1.04117e-75 -1.65891 2.24152e-79 -2.14399 -1.57497e-48 2.79843 9.46903e-27 -1.5572 0 -0.881869 5.8297e-63 1.29681 1.96012e-24 1.75279 -3.12409e-208 -2.63328 -1.15758e-68 -0.475354 -7.90087e-33 -1.73813 -1.3367e-42 -0.595159 3.03768e-38 0.232838 1.7198e-27 -0.119725 1.51047e-63 0.0824184 -6.88498e-32 -1.8582 -2.34211e-66 1.62412 1.12461e-35 -0.972324 -2.07789e-34 -1.15919 -1.01735e-39 -3.32993 -1.45514e-52 -1.7494 1.23211e-41 -2.35842 -1.35508e-71 -1.56479 -2.1383e-47 1.26619 3.85415e-260 0.60181 2.02542e-53 -2.58201 0 -2.13677 0 -1.85005 -4.25071e-46 2.27531 0 -0.980576 -1.59925e-47 0.648591 0 -0.765361 1.4174e-56 -0.93939 -1.53579e-45 -0.0190339 1.52944e-67 1.15782 -1.71241e-94 0.908136 -3.18137e-37 -1.50576 2.38731e-40 -0.62565 -5.46586e-34 -1.07037 -1.48189e-75 -1.13349 -3.53359e-35 -0.419501 1.28957e-63 -1.58459 -2.15243e-44 -2.61371 -1.43583e-47 7.57907 0 -2.04137 -2.62001e-47 2.66443 0 -0.927758 -1.56486e-45 2.65831 0 -1.66538 3.89942e-67 -1.71031 -3.85976e-43 1.1589 0 1.35531 2.99283e-42 -2.38824 0 -2.35488 0 -0.694644 2.42508e-46 1.75149 2.28117e-262 -1.0874 -6.6309e-46 7.8845 0 0.537768 1.30817e-269 -1.88176 -1.6796e-44 2.76693 -2.39951e-34 -2.35158 0 7.74763 0 0.0139086 -4.6998e-34 -2.44308 0 0.905682 -3.79256e-53 -0.202903 1.44237e-55 1.91253 5.3024e-35 0.205337 -3.49822e-260 -2.49676 -8.74956e-46 -1.41526 -1.88721e-57 1.34455 -9.31115e-42 1.72037 1.85329e-32 -2.88401 1.69195e-50 -0.63448 0 2.17894 2.15468e-27 -2.59566 -5.76358e-48 0.125462 -9.98175e-45 -2.2123 -7.45763e-48 -1.21611 -3.23221e-48 -0.329609 4.36164e-46 -1.09906 -3.39556e-31 2.13634 0 0.553555 -1.18767e-37 -1.59622 6.01522e-147 -1.89043 -1.56163e-46 -1.83542 -6.41708e-64 -2.55479 1.36785e-42 -0.773444 -1.6683e-43 -1.65845 0 -1.79882 6.00138e-88 -0.541028 6.18295e-94 2.11204 -6.58227e-49 0.191817 2.90493e-35 7.91448 0 -0.775699 1.16858e-39 2.06273 -4.9067e-64 -1.092 2.32266e-44 -2.04672 3.79751e-57 -1.05437 -1.87564e-40 -1.09817 -2.26872e-44 0.660752 2.27796e-33 0.609747 -3.55249e-203 6.36393 0 2.67282 0 -2.09759 -5.88575e-47 0.955602 -8.9051e-67 -1.96379 -5.47109e-44 0.557435 4.32788e-39 -2.11645 -6.60234e-72 0.836965 1.82543e-41 -2.85475 -5.93423e-70 -1.8562 0 1.55472 4.67645e-38 -2.02952 -1.51175e-46 -2.37407 -2.59306e-48 -0.725255 -1.05201e-41 -2.01666 3.02804e-58 4.21239 0 -0.7941 -1.12583e-42 -1.08154 -1.14377e-36 -1.47082 -1.23923e-42 2.17757 1.07647e-34 -0.229355 1.13581e-36 -1.56361 -9.45264e-39 -2.62109 0 -2.03138 2.71568e-147 2.49097 3.35824e-30 -2.51098 -1.16679e-49 -2.42482 -6.28956e-72 -0.832817 -7.16864e-43 0.227982 3.83469e-25 -1.24357 -5.33432e-49 -0.34444 0 8.0806 0 -1.08602 1.02322e-52 -2.3976 0 -1.94753 0 -1.4629 2.82831e-38 -1.32845 -2.21717e-42 0.0392023 -3.308e-89 0.175003 7.63274e-64 2.31674 7.68489e-165 -2.45039 -6.39867e-72 -2.00011 0 0.552025 1.71404e-56 0.272124 -5.73922e-66 -0.789347 3.26341e-84 0.676997 9.2493e-34 0.33887 1.1215e-40 -2.37924 -1.7573e-67 -1.66537 -1.03737e-43 -0.0538638 -8.38456e-65 -1.4727 -1.27322e-41 -2.60511 0 0.973993 -2.23019e-68 -2.64984 -9.39452e-71 -2.54542 9.45892e-64 -0.315758 7.83394e-31 2.87635 5.50398e-93 -1.33647 3.14122e-40 -1.23233 2.8582e-34 2.29423 -4.53574e-30 -1.40631 -3.79262e-44 -1.20738 3.3967e-89 -0.439472 5.66562e-41 -0.816877 7.55293e-54 -2.15924 0 0.467123 2.81489e-37 -1.76727 3.75955e-314 -1.09806 1.41433e-93 -0.13867 1.18238e-62 -1.67823 2.14294e-88 -1.97794 -1.50707e-45 -1.36127 -1.62904e-41 -1.92133 -4.83704e-49 -0.0210439 5.36848e-44 -2.39376 -6.8449e-39 -0.122367 -6.04836e-54 0.685684 2.87303e-54 2.02036 -1.55631e-195 2.21237 3.75767e-33 -0.305601 2.75548e-61 -0.65836 3.34517e-77 9.96193 0 -1.65621 0 -1.38363 3.18757e-50 -2.39793 -9.12083e-71 1.27164 3.66729e-256 -2.38375 -1.68977e-46 1.66914 -1.37685e-28 -2.11459 0 -2.2706 -1.10133e-58 -2.66278 0 -1.94635 -3.01411e-41 2.64849 1.49708e-298 -1.90608 -1.52016e-71 -2.53548 0 1.50347 -9.86529e-25 -1.64735 -1.77642e-39 1.44578 -1.04117e-75 -1.57797 2.24152e-79 -2.09668 -1.57497e-48 2.5536 -9.46903e-27 -1.69637 0 -1.09265 5.8297e-63 1.30892 -1.96012e-24 1.65809 -3.12409e-208 -2.57537 -1.15758e-68 -0.688955 -7.90087e-33 -1.58261 -1.3367e-42 0.00360176 3.03768e-38 0.242233 -1.7198e-27 -0.41673 1.51047e-63 -0.0798028 -6.88979e-32 -1.73782 -2.34211e-66 2.09376 1.12461e-35 -1.04756 -2.07789e-34 -0.896806 -1.01735e-39 -2.67379 -1.45514e-52 -1.93742 1.23211e-41 -2.22465 -1.35508e-71 -1.61708 -2.13833e-47 1.73467 3.85415e-260 0.157832 2.02542e-53 -2.33051 0 -2.07638 0 -1.84331 -4.25071e-46 1.8642 0 -1.01759 -1.59925e-47 0.598439 0 -0.678809 1.4174e-56 -1.36476 -1.53579e-45 -0.204272 1.52944e-67 1.35312 -1.71241e-94 0.808104 -3.18137e-37 -1.72743 -2.84528e-40 -0.351797 -5.46586e-34 -1.26501 -1.48189e-75 -0.938489 -3.54456e-35 -0.199346 1.28957e-63 -1.63222 -2.15243e-44 -2.68109 -1.43583e-47 7.48165 0 -1.99838 -2.62001e-47 2.63805 0 -0.906432 -1.56486e-45 2.58178 0 -1.78451 3.89942e-67 -1.42661 -3.85976e-43 1.20121 0 1.43131 2.99284e-42 -2.3041 0 -2.44801 0 -0.724414 2.42461e-46 1.69766 2.28117e-262 -0.929083 -6.6309e-46 8.03088 0 0.347095 1.30817e-269 -1.90817 -1.6796e-44 2.55806 -2.47422e-34 -2.13825 0 7.80854 0 0.0965651 -4.6998e-34 -2.57913 0 0.813065 3.79256e-53 -0.230798 -1.44237e-55 1.52345 5.3009e-35 1.06666 -3.49822e-260 -2.4129 -8.74956e-46 -1.61452 -1.88721e-57 1.16136 -9.31115e-42 1.75654 -1.85329e-32 -2.81867 1.69195e-50 -0.525356 0 2.25235 -2.15468e-27 -2.59049 -5.76358e-48 0.116832 -9.98175e-45 -2.23593 -7.45763e-48 -1.00481 -3.23221e-48 -0.546883 4.36164e-46 -0.675475 -3.39556e-31 2.42443 0 0.557703 -1.18767e-37 -1.76907 6.01522e-147 -1.84982 -1.56164e-46 -1.63888 -6.41708e-64 -2.68137 1.36785e-42 -0.861878 -1.6683e-43 -1.46418 0 -1.48963 6.00138e-88 -0.162934 6.18295e-94 1.97741 8.02284e-49 0.243137 -4.88007e-36 7.92345 0 -0.0912582 1.16858e-39 1.89653 -4.9067e-64 -1.11791 -2.32474e-44 -2.13292 -3.79751e-57 -1.34485 -1.87564e-40 -1.05455 -2.26872e-44 0.703344 2.27796e-33 1.22706 -3.55249e-203 6.11038 0 0.759485 0 -2.12488 -5.88575e-47 1.1147 -8.9051e-67 -1.85924 -5.47109e-44 1.29519 4.32788e-39 -1.98114 -6.60234e-72 0.834797 1.82543e-41 -2.72271 -5.93423e-70 -1.78535 0 1.4909 4.67645e-38 -1.92629 -1.51175e-46 -2.4608 -2.59306e-48 -0.371917 -1.05193e-41 -1.99656 -3.06066e-58 3.77378 0 -0.948556 -1.12583e-42 -1.19775 -1.14377e-36 -1.58293 -1.23923e-42 2.13127 1.07647e-34 -0.318915 1.13581e-36 -1.66877 -9.45265e-39 -2.85349 0 -2.3125 2.71568e-147 2.65148 -3.35824e-30 -2.45017 -1.16679e-49 -2.28971 -6.28956e-72 -0.563783 -7.16864e-43 0.357887 -3.83469e-25 -1.06591 -5.33432e-49 -0.346386 0 8.26502 0 -1.33186 1.02322e-52 -2.18362 0 -1.93788 0 -1.17383 2.82831e-38 -1.20454 -2.21717e-42 0.18796 -3.308e-89 1.13032 7.63274e-64 1.46984 7.68489e-165 -2.56793 -6.39867e-72 -2.03076 0 0.648475 1.71404e-56 0.0467171 -5.73922e-66 -0.8417 3.26341e-84 0.692116 9.2493e-34 0.349153 1.1215e-40 -2.25885 -1.7573e-67 -1.4069 -1.03737e-43 0.437175 -8.38456e-65 -1.60116 -1.27322e-41 -2.39143 0 0.346256 -2.23019e-68 -2.67741 -9.39452e-71 -2.77165 9.45892e-64 0.468774 -7.83394e-31 4.19655 5.50398e-93 0.172878 -3.13197e-40 -0.225428 2.8582e-34 2.3345 -4.53574e-30 1.92362 -3.79262e-44 2.84971 3.3967e-89 -0.453576 -5.66562e-41 2.07325 7.55293e-54 2.7091 0 0.628493 2.81489e-37 3.05143 3.75955e-314 -0.329313 1.41433e-93 2.80998 1.18238e-62 2.20571 2.14294e-88 2.66493 -1.50707e-45 1.90544 -1.62904e-41 2.57874 -4.83704e-49 -0.332165 5.36848e-44 3.18028 -6.8449e-39 0.0498678 -6.04836e-54 0.528551 2.87303e-54 2.74052 -1.55631e-195 1.89075 3.75767e-33 -0.110232 2.75548e-61 1.23066 3.34517e-77 11.6892 0 3.02141 0 1.613 3.18757e-50 2.71311 -9.12083e-71 1.77677 -3.66729e-256 2.54595 -1.68977e-46 2.12958 -1.37685e-28 2.42892 0 2.2428 -1.10133e-58 2.55112 0 2.36212 -3.01411e-41 2.48206 1.49708e-298 2.96472 -1.52016e-71 2.55367 0 2.08711 -9.86529e-25 1.85711 -1.77642e-39 2.22227 -1.04117e-75 1.75151 2.24152e-79 2.58218 -1.57497e-48 3.17051 -9.46903e-27 2.2417 0 1.85151 5.8297e-63 1.71946 -1.96012e-24 2.06748 -3.12409e-208 3.00032 -1.15758e-68 1.2232 -7.90087e-33 2.17184 -1.3367e-42 1.5879 3.03768e-38 0.623627 -1.7198e-27 -0.164257 1.51047e-63 1.19025 -6.88979e-32 2.44615 -2.34211e-66 2.61342 1.12461e-35 0.956615 -2.07789e-34 1.68401 -1.01735e-39 -1.5726 -1.45514e-52 3.36787 1.2321e-41 3.04902 -1.35508e-71 2.41478 -2.13833e-47 2.27469 -3.85415e-260 1.18668 2.02542e-53 2.99902 0 2.52022 0 2.27933 -4.25071e-46 3.33243 0 1.35153 -1.59925e-47 2.3991 0 1.36535 1.4174e-56 -0.836171 -1.53579e-45 1.64053 1.52944e-67 3.19208 -1.71241e-94 1.34929 -3.18137e-37 1.56915 -2.84565e-40 0.00157631 -5.46586e-34 -1.88155 -1.48189e-75 2.17407 3.53335e-35 2.15992 1.28957e-63 2.32532 -2.15243e-44 2.78869 -1.43583e-47 9.50467 0 1.98336 -2.62001e-47 3.90294 0 1.44652 -1.56486e-45 4.4459 0 -1.6285 3.89942e-67 2.02634 -3.85976e-43 2.53504 0 1.69798 2.99284e-42 2.76799 0 2.59148 0 -0.0853886 2.42461e-46 1.98621 -2.28117e-262 1.23352 -6.6309e-46 10.3671 0 0.479993 -1.30817e-269 2.65203 -1.6796e-44 -2.1577 -2.47422e-34 2.35395 0 9.03673 0 1.97144 -4.6998e-34 2.66112 0 0.820662 3.79256e-53 1.37743 -1.44237e-55 1.92118 -5.3024e-35 1.12703 3.49822e-260 2.5676 -8.74956e-46 2.21636 -1.88721e-57 1.4764 -9.31115e-42 2.07758 -1.85329e-32 2.85934 1.69195e-50 -0.00868131 0 -1.10623 -2.15468e-27 2.88184 -5.76358e-48 1.49222 -9.98175e-45 2.4794 -7.45763e-48 1.57121 -3.23221e-48 -1.26903 4.36164e-46 2.90764 3.39556e-31 4.27989 0 1.117 -1.18767e-37 -0.636971 6.01522e-147 1.55657 -1.56164e-46 -0.672657 -6.41708e-64 -1.07942 1.36785e-42 1.4044 -1.6683e-43 2.52409 0 1.85646 6.00138e-88 0.227677 6.18295e-94 2.42269 8.02284e-49 1.61644 -2.90493e-35 9.9238 0 0.767169 1.16858e-39 1.73308 -4.9067e-64 1.80843 -2.32474e-44 2.80307 -3.79751e-57 2.02028 -1.87564e-40 1.8453 -2.26872e-44 0.756181 2.27796e-33 -0.0486976 -3.55249e-203 8.46374 0 1.43824 0 2.60506 -5.88575e-47 3.21525 -8.9051e-67 2.33633 -5.47109e-44 2.48428 -4.32788e-39 2.88682 -6.60234e-72 1.04619 1.82543e-41 2.85903 -5.93423e-70 2.65518 0 1.88126 -4.00246e-38 2.60189 -1.51175e-46 2.85698 -2.59306e-48 0.594989 -1.05193e-41 1.86423 -3.06066e-58 3.96457 0 1.42343 -1.12583e-42 2.07252 -1.14377e-36 2.27475 -1.23923e-42 1.86771 7.61096e-36 -0.149999 -1.13514e-36 2.22289 -9.45265e-39 2.80844 0 1.80044 2.71568e-147 2.61521 -3.35824e-30 2.86259 -1.16679e-49 2.84233 -6.28956e-72 0.886907 -7.16864e-43 0.0708318 -3.83469e-25 1.35522 -5.33432e-49 0.132018 0 10.1498 0 1.10701 1.02322e-52 2.85652 0 2.24417 0 -1.10821 2.82831e-38 1.90792 -2.21717e-42 2.35062 -3.308e-89 1.77075 7.63274e-64 2.47738 -7.68489e-165 2.62005 -6.39867e-72 2.8976 0 -1.36683 1.71404e-56 0.461479 -5.73922e-66 2.48394 3.26341e-84 0.607484 9.2493e-34 0.329342 1.1215e-40 3.12804 -1.7573e-67 1.86325 -1.03737e-43 1.7428 -8.38456e-65 2.63494 -1.27322e-41 2.43012 0 0.462539 -2.23019e-68 3.32327 -9.39452e-71 -2.51193 9.45892e-64 0.547824 7.83394e-31 4.25437 5.50398e-93 0.464189 3.14122e-40 -0.155857 2.8582e-34 2.53305 -4.53574e-30 1.79425 -3.79262e-44 2.72109 3.3967e-89 0.224654 5.66562e-41 1.9959 7.55293e-54 2.60827 0 0.403209 2.81489e-37 2.89479 -3.75955e-314 -0.243467 1.41433e-93 2.83841 1.18238e-62 2.16779 2.14294e-88 2.56362 -1.50707e-45 2.01229 -1.62904e-41 2.30473 -4.83704e-49 -0.301646 -5.36848e-44 3.12949 -6.8449e-39 0.157952 -6.04836e-54 0.621949 2.87303e-54 2.30806 -1.55631e-195 1.69838 3.75767e-33 -0.127795 2.75548e-61 1.19445 3.34517e-77 11.7575 0 2.66501 0 1.65913 3.18757e-50 2.98299 -9.12083e-71 1.98794 -3.66729e-256 2.77166 -1.68977e-46 2.20109 -1.37685e-28 2.5691 0 2.23874 -1.10133e-58 2.51351 0 2.07082 -3.01411e-41 2.63929 1.49708e-298 3.01631 -1.52016e-71 2.51765 0 1.27544 -9.86529e-25 2.03498 -1.77642e-39 2.57306 -1.04117e-75 1.95395 2.24152e-79 2.54039 -1.57497e-48 2.9387 -9.46903e-27 2.11262 0 1.62287 5.8297e-63 1.56011 -1.96012e-24 1.87064 -3.12409e-208 3.00426 -1.15758e-68 1.18888 -7.90087e-33 2.37379 -1.3367e-42 1.7665 3.03768e-38 0.644467 -1.7198e-27 0.0292889 1.51047e-63 0.644514 -6.88979e-32 2.53512 -2.34211e-66 2.82553 1.12461e-35 0.815234 -2.07789e-34 1.70849 -1.01735e-39 -1.38763 -1.45514e-52 3.45929 1.23211e-41 2.81505 -1.35508e-71 2.34756 -2.13832e-47 1.6855 -3.85415e-260 0.500646 2.02542e-53 2.86514 0 2.75102 0 2.38657 -4.25071e-46 3.6119 0 1.07848 -1.59925e-47 2.34899 0 1.48383 1.4174e-56 -0.878339 -1.53579e-45 1.55955 1.52944e-67 3.20146 -1.71241e-94 1.50568 -3.18137e-37 1.53368 -2.844e-40 -0.149305 -5.46586e-34 -2.73165 -1.48189e-75 2.12953 -3.54456e-35 2.18921 1.28957e-63 2.2638 -2.15243e-44 2.60839 -1.43583e-47 9.55943 0 1.77569 2.62001e-47 3.88588 0 1.58965 -1.56486e-45 4.44943 0 -1.5542 3.89942e-67 1.86424 -3.85976e-43 2.62277 0 1.52078 2.99284e-42 2.70596 0 2.6277 0 0.0430578 2.42461e-46 1.99247 -2.28117e-262 1.21005 -6.6309e-46 10.3498 0 0.942076 -1.30817e-269 2.60212 -1.6796e-44 -2.119 -2.47422e-34 2.42351 0 9.10121 0 1.95968 -4.6998e-34 2.64443 0 0.931848 3.79256e-53 1.47107 -1.44237e-55 2.29389 5.3009e-35 1.1304 3.49822e-260 2.3843 -8.74956e-46 2.13749 -1.88721e-57 1.40195 -9.31115e-42 2.1089 -1.85329e-32 2.94323 1.69195e-50 -0.250807 0 -1.20802 -2.15468e-27 2.95646 -5.76358e-48 1.355 -9.98175e-45 2.37847 -7.45763e-48 1.43967 -3.23221e-48 -1.87697 4.36164e-46 2.9024 -3.39556e-31 4.14183 0 1.03105 -1.18767e-37 -0.25175 6.01522e-147 1.77858 -1.54187e-46 -0.657779 -6.41708e-64 -1.03675 1.3678e-42 1.6176 -1.6683e-43 2.49849 0 1.88222 6.00138e-88 0.358305 6.18295e-94 2.54735 8.02284e-49 1.67408 -4.88007e-36 9.80195 0 0.582079 1.16858e-39 1.69874 -4.9067e-64 1.68364 -2.32471e-44 2.61185 -3.79751e-57 2.03405 -1.87564e-40 1.95891 -2.26872e-44 0.363061 2.27796e-33 0.00631078 -3.55249e-203 8.33856 0 0.927902 0 2.7575 -5.88575e-47 3.17297 -8.9051e-67 2.57954 -5.47109e-44 2.37879 4.32788e-39 2.8564 -6.60234e-72 0.890857 -1.82543e-41 2.99438 -5.93423e-70 2.61528 0 1.97724 4.67645e-38 2.75365 -1.51175e-46 2.85393 -2.59306e-48 0.0409758 -1.05193e-41 2.03586 -3.06066e-58 3.86832 0 1.30966 -1.12583e-42 2.09234 -1.14377e-36 2.29705 -1.23923e-42 1.61704 1.07647e-34 0.0333054 1.13581e-36 2.31592 -9.45235e-39 2.71914 0 1.83169 2.71568e-147 2.6412 -3.35824e-30 2.73431 -1.16679e-49 3.03418 -6.28956e-72 0.715353 -7.16864e-43 0.0394531 -3.83469e-25 1.2919 -5.33432e-49 -1.05373 0 9.99998 0 0.877379 -1.02322e-52 2.79091 0 2.17408 0 -0.92744 2.82831e-38 1.94318 -2.21717e-42 2.25664 -3.308e-89 1.49006 7.63274e-64 2.20808 -7.68489e-165 2.82431 -6.39867e-72 2.62983 0 -1.36412 1.71404e-56 0.212094 -5.73922e-66 2.61553 3.26341e-84 0.891574 9.2493e-34 -0.0620419 1.1215e-40 3.03274 -1.7573e-67 2.01125 -1.03737e-43 1.69325 -8.38456e-65 2.58723 -1.27322e-41 2.43522 0 0.486675 -2.23019e-68 3.5122 -9.39452e-71 -2.46023 9.45892e-64 0.00413504 7.83394e-31 4.37657 5.50398e-93 0.251154 3.14122e-40 -0.543341 2.8582e-34 2.24656 4.53574e-30 1.98841 -3.79262e-44 2.0778 3.3967e-89 -0.151084 5.66562e-41 2.81595 -7.56215e-54 2.66328 0 0.43294 2.81489e-37 1.98686 -3.75955e-314 -0.976991 1.41433e-93 2.22325 1.18238e-62 1.49588 2.14294e-88 2.53634 -1.50707e-45 1.93518 -1.62904e-41 2.10206 -4.83704e-49 0.105193 -5.36848e-44 2.93371 -6.8449e-39 0.294682 -6.04836e-54 1.53637 2.87303e-54 2.37214 -1.55631e-195 0.785271 3.75767e-33 0.00849193 2.75548e-61 1.25651 3.34517e-77 11.7454 0 1.90634 0 1.27109 3.18757e-50 2.64351 -9.12083e-71 1.8528 -3.66729e-256 2.64015 -1.68977e-46 2.79806 1.37685e-28 2.48567 0 2.11703 -2.21268e-59 2.52879 0 2.22577 -3.01411e-41 2.71028 1.49708e-298 2.5934 -1.52016e-71 2.61429 0 1.10226 9.86529e-25 2.22504 -1.77642e-39 2.78532 1.04117e-75 1.74297 2.24152e-79 2.55514 -1.57497e-48 3.11152 9.46903e-27 2.02812 0 1.67656 5.8297e-63 2.35445 1.96012e-24 2.02219 -3.12409e-208 2.84186 -1.15758e-68 1.84799 -7.90087e-33 1.98977 -1.3367e-42 1.53508 3.03768e-38 0.22595 1.7198e-27 -0.0156809 1.51047e-63 1.0707 -6.88498e-32 2.13166 -2.10454e-66 3.69786 1.12461e-35 1.1751 -2.07789e-34 1.61609 -1.01735e-39 -2.1523 -1.45514e-52 3.33766 1.23211e-41 2.61896 -1.35508e-71 2.25408 -2.13832e-47 1.95101 -3.85415e-260 0.731506 2.02542e-53 2.89759 0 2.4168 0 2.29712 -4.25071e-46 3.39949 0 1.09465 -1.59925e-47 3.02745 0 1.5588 1.4174e-56 -1.68158 -1.53579e-45 1.67953 1.52944e-67 3.24404 -1.71241e-94 1.46036 -3.18137e-37 1.72038 2.38859e-40 0.152098 -5.46586e-34 -2.25131 -1.48189e-75 2.13304 -3.53359e-35 1.86748 1.28957e-63 1.88788 -2.15243e-44 2.91234 -1.43583e-47 9.86035 0 1.91777 2.62001e-47 3.94793 0 1.25989 -1.56486e-45 4.21949 0 -1.54277 3.89942e-67 1.9273 -3.85976e-43 2.65017 0 1.49925 2.99284e-42 2.55956 0 2.39479 0 0.184557 2.42461e-46 3.25669 -2.28117e-262 1.4737 -6.6309e-46 10.7753 0 0.676321 -1.30817e-269 2.41723 -1.6796e-44 -2.03465 -2.39951e-34 2.23182 0 9.30207 0 0.496215 -4.6998e-34 2.5714 0 0.822259 3.79256e-53 1.37932 -1.44237e-55 2.21174 5.3024e-35 0.946963 3.49822e-260 2.84696 -8.74956e-46 1.65644 1.61768e-57 -0.885836 -9.31115e-42 2.38998 1.85329e-32 2.9371 1.69195e-50 0.707356 0 -1.16745 2.15468e-27 3.02214 -5.76358e-48 1.47396 -9.98175e-45 2.48105 -7.45763e-48 1.14511 -3.23221e-48 -1.79476 4.36164e-46 0.81673 -3.39556e-31 4.16267 0 1.11126 -1.18767e-37 5.4447 -6.01522e-147 1.83478 -1.54187e-46 -0.48 -6.41708e-64 -0.908491 1.3678e-42 1.2782 -1.6683e-43 2.32272 0 1.55705 6.00138e-88 0.743922 6.18295e-94 1.64606 8.02281e-49 0.848047 2.90493e-35 9.95791 0 0.696116 1.16858e-39 1.36334 -4.9067e-64 1.06384 -2.32471e-44 2.60862 -3.79751e-57 1.67165 -1.87564e-40 1.66299 -2.26872e-44 0.256649 2.27796e-33 -0.490874 -3.55249e-203 8.64571 0 2.30812 0 2.53286 -5.88575e-47 2.81434 -8.9051e-67 2.17165 -5.47109e-44 2.62641 4.32788e-39 2.58976 -6.60234e-72 2.36447 -1.82543e-41 3.0756 -5.93423e-70 2.39571 0 1.75387 4.67645e-38 2.26033 -1.51175e-46 2.62925 -2.59306e-48 -0.494707 -1.05193e-41 1.79226 -3.04472e-58 3.80608 0 1.52658 -1.12583e-42 1.61861 -1.14377e-36 2.0566 -1.23923e-42 2.04274 1.07647e-34 -0.0170143 1.13581e-36 2.11341 -9.45235e-39 2.85437 0 1.53188 -2.71568e-147 2.43893 3.35824e-30 2.96581 -1.16679e-49 2.84075 -6.28956e-72 1.14175 -7.16864e-43 0.444604 3.83469e-25 1.26565 -5.33432e-49 -1.29602 0 10.2569 0 1.32541 -1.02322e-52 2.80861 0 2.12997 0 -1.18621 2.82831e-38 2.05287 -2.21717e-42 2.33055 -3.308e-89 1.34879 7.63274e-64 2.7577 7.68489e-165 2.70385 -6.39867e-72 2.54806 0 -0.518359 1.71399e-56 0.186268 -5.49173e-66 0.955222 3.26341e-84 0.798422 9.2493e-34 0.177773 1.1215e-40 2.68247 -1.7573e-67 1.86425 -1.03737e-43 1.70884 -8.38456e-65 2.24375 -1.27322e-41 2.65099 0 0.413382 -2.23019e-68 3.31979 -9.39452e-71 -2.48982 9.45892e-64 -0.253833 7.83394e-31 4.67133 5.50398e-93 0.824322 3.13197e-40 1.66595 2.85813e-34 2.3833 4.53574e-30 1.8968 -3.79262e-44 1.95389 3.3967e-89 0.517606 5.66562e-41 1.99843 7.56217e-54 2.58465 0 0.58923 2.81489e-37 2.00344 -3.75955e-314 -0.560102 1.41433e-93 2.85534 1.18238e-62 1.61508 2.14294e-88 2.68737 -1.50707e-45 1.95458 -1.62904e-41 2.24099 -4.83704e-49 0.626858 -5.36848e-44 2.9201 -6.8449e-39 0.742555 -6.0483e-54 1.49122 2.87303e-54 3.25839 1.55631e-195 1.83595 3.75767e-33 0.576764 2.75548e-61 1.44247 3.34517e-77 11.855 0 2.22593 0 1.37643 3.18757e-50 2.7746 9.12083e-71 0.348759 3.66729e-256 2.74327 -1.68977e-46 2.78746 1.37685e-28 2.33955 0 2.19393 -1.08602e-58 2.41938 0 2.32274 -3.01411e-41 2.42813 1.49708e-298 2.28683 1.52016e-71 2.44997 0 1.22455 9.86529e-25 2.00168 -1.77642e-39 2.6647 1.04117e-75 1.73877 2.24152e-79 2.46873 -1.57497e-48 2.53635 9.46903e-27 1.81363 0 1.76376 -5.8297e-63 2.06871 1.96012e-24 1.99152 3.12409e-208 2.76031 1.15758e-68 1.47777 -7.90087e-33 1.85496 -1.3367e-42 1.71797 3.03768e-38 0.516631 1.7198e-27 1.02616 1.51047e-63 1.23602 -6.88498e-32 2.21767 2.10454e-66 3.96842 1.12461e-35 0.961374 -2.07789e-34 1.83309 -1.01735e-39 -1.89602 -1.45514e-52 3.61736 -1.2321e-41 2.53653 1.35508e-71 2.02784 -2.13832e-47 1.92332 3.85415e-260 1.25066 -2.02542e-53 2.76599 0 2.34384 0 2.13778 -4.25071e-46 3.43115 0 1.16366 -1.59925e-47 3.31823 0 2.02617 1.4174e-56 -1.41191 -1.53579e-45 1.57747 1.52944e-67 3.0869 -1.71241e-94 1.67244 -3.18137e-37 1.51498 2.84565e-40 2.76062 -5.46586e-34 1.20822 -1.48189e-75 2.19442 -3.53335e-35 1.77878 1.28957e-63 1.92019 -2.15243e-44 2.76088 -1.43583e-47 9.76302 0 1.96485 2.62001e-47 3.88172 0 1.34937 -1.56486e-45 4.27195 0 1.50716 3.89942e-67 1.80152 -3.85976e-43 2.5633 0 1.55196 -2.99283e-42 2.68484 0 2.46454 0 2.05732 2.42461e-46 3.54199 2.28117e-262 1.3973 -6.6309e-46 10.867 0 0.90964 1.30817e-269 2.39282 -1.6796e-44 -2.21835 -2.39951e-34 2.29725 0 9.17896 0 1.79858 -4.6998e-34 2.49142 0 3.0304 3.79256e-53 1.50386 -1.44237e-55 0.937541 5.3024e-35 3.27531 -3.49822e-260 2.62399 -8.74956e-46 1.75958 -1.61768e-57 2.40263 -1.09553e-41 2.17743 1.85329e-32 2.88883 1.69195e-50 1.51887 0 -1.28709 2.15468e-27 2.85515 -5.76358e-48 1.53397 -1.26428e-44 2.38337 -7.45763e-48 1.3182 -3.23221e-48 -0.640424 -4.36164e-46 0.739253 -3.39556e-31 3.90423 0 1.48979 -1.18767e-37 5.56245 -6.01522e-147 1.77826 -1.54187e-46 -0.0213081 -6.41708e-64 1.09185 1.3678e-42 1.32888 -1.6683e-43 2.08427 0 1.75036 6.00138e-88 1.35697 6.18295e-94 1.83798 6.5823e-49 0.539868 2.90493e-35 10.0045 0 1.88785 1.16858e-39 2.07209 -4.9067e-64 1.06331 -2.32471e-44 2.40866 -3.79751e-57 1.96085 -1.87564e-40 1.84009 -2.26872e-44 2.30829 2.27796e-33 0.212303 -3.55249e-203 8.59538 0 2.68063 0 2.33698 -5.88575e-47 3.33571 -8.9051e-67 2.19497 -5.47109e-44 2.64143 4.32788e-39 2.26257 6.60234e-72 2.21776 -1.82543e-41 3.15348 5.93423e-70 2.26051 0 1.9636 4.67645e-38 2.37082 -1.51175e-46 2.7763 -2.59306e-48 0.685124 -1.05193e-41 1.8746 -3.04398e-58 4.45464 0 1.03709 -1.12583e-42 1.77018 -1.14377e-36 2.26879 -1.23923e-42 -0.900294 1.07647e-34 3.0231 1.13581e-36 2.05586 -9.45235e-39 2.87006 0 1.59191 -2.71568e-147 2.44835 3.35824e-30 2.98201 -1.16679e-49 2.70068 6.28956e-72 2.54039 -1.23689e-42 2.21294 3.83469e-25 1.50638 -5.33432e-49 -0.164809 0 9.95464 0 1.08608 -1.02322e-52 2.68856 0 2.2736 0 0.935184 2.82831e-38 1.76094 -2.21717e-42 2.57253 -3.308e-89 0.561961 7.63274e-64 3.77831 7.68489e-165 2.72903 6.39867e-72 2.64844 0 0.62715 -1.71399e-56 2.70677 5.73922e-66 0.913835 3.26341e-84 0.806764 9.2493e-34 0.211477 1.1215e-40 2.6089 1.7573e-67 2.01937 -1.03737e-43 1.78192 -8.38456e-65 2.39907 -1.27322e-41 2.4557 0 0.651588 -2.23019e-68 3.22622 9.39452e-71 0.684304 9.45892e-64 1.61973 7.83394e-31 4.4097 5.50398e-93 1.56583 3.13205e-40 3.04989 -2.8582e-34 2.33985 4.53574e-30 1.69102 3.79262e-44 1.93379 3.3967e-89 1.78687 5.66562e-41 3.7762 7.56217e-54 2.56262 0 1.02697 -2.81489e-37 2.07841 -3.75955e-314 0.0165502 1.41433e-93 3.30476 1.18238e-62 1.55186 2.14294e-88 2.5118 1.50707e-45 2.02198 1.62904e-41 2.25018 4.83703e-49 2.58116 5.36848e-44 3.15986 6.8449e-39 1.84643 9.5685e-54 1.84299 2.87303e-54 3.75245 1.55631e-195 2.91173 -3.75767e-33 1.89598 2.75548e-61 1.36893 3.34517e-77 11.6549 0 1.89979 0 1.55579 -3.18757e-50 2.46505 -9.12083e-71 4.22497 3.66729e-256 2.64088 1.68977e-46 2.92498 1.37685e-28 2.60739 0 2.12209 -1.10133e-58 2.36582 0 2.07838 3.01411e-41 2.87084 1.49708e-298 2.34884 -1.52016e-71 2.60651 0 1.34328 9.86529e-25 2.3287 1.77642e-39 2.83088 1.04117e-75 1.36324 2.24152e-79 2.50527 1.57497e-48 3.14457 9.46903e-27 2.02179 0 1.6595 5.8297e-63 2.59879 1.96012e-24 3.00771 3.12409e-208 2.62105 -1.15758e-68 1.76875 -7.90087e-33 1.84652 1.3367e-42 1.36227 -3.03768e-38 0.331834 1.7198e-27 2.14779 1.51047e-63 2.18199 -6.88498e-32 2.02915 -2.34211e-66 4.11854 -1.12461e-35 1.63952 2.07789e-34 1.76687 1.01735e-39 -0.731937 1.45514e-52 3.34513 -1.23215e-41 2.39859 -1.35508e-71 2.04793 2.1383e-47 3.10185 3.85415e-260 2.46644 -2.16245e-54 2.86575 0 2.38085 0 2.4479 4.25071e-46 3.76991 0 0.896455 1.59925e-47 3.47085 0 2.41639 1.4174e-56 1.70524 -1.53579e-45 1.91455 1.52944e-67 3.12707 -1.71241e-94 1.9843 -3.18137e-37 1.58676 2.84308e-40 3.01323 -5.46586e-34 1.22196 -1.48189e-75 2.29516 -3.53335e-35 2.54173 1.28957e-63 2.19566 2.15243e-44 2.55322 1.43583e-47 9.65335 0 1.81349 -2.62001e-47 4.13953 0 1.43932 1.56486e-45 4.28519 0 2.68043 3.89942e-67 1.81965 3.85976e-43 2.53135 0 1.93993 -2.50871e-43 2.6177 0 2.56654 0 2.73211 -2.42508e-46 3.59782 2.28117e-262 1.31385 6.6309e-46 10.8299 0 1.64245 1.30817e-269 2.25151 1.6796e-44 2.62174 -2.39951e-34 2.11318 0 9.30403 0 1.66023 4.6998e-34 2.66593 0 2.95203 3.79256e-53 1.32524 -1.44237e-55 0.946673 5.3024e-35 3.69266 -3.49822e-260 2.56847 8.74956e-46 1.50858 -1.88721e-57 2.60305 -1.09552e-41 2.36385 1.85329e-32 2.82885 -1.69195e-50 1.39123 0 2.498 2.15468e-27 2.84899 5.76358e-48 1.56376 -1.26428e-44 2.60779 7.45763e-48 1.27569 3.23221e-48 -0.488253 -4.36164e-46 0.744844 -3.39556e-31 4.15594 0 1.68381 -1.18767e-37 5.97941 -6.01522e-147 1.46581 1.54186e-46 0.10763 -6.41708e-64 2.97903 1.36785e-42 1.26983 1.6683e-43 2.07172 0 1.74358 6.00138e-88 1.612 6.18295e-94 1.18004 7.11083e-49 0.632024 2.90493e-35 10.063 0 2.22024 -1.16863e-39 3.25359 -4.9067e-64 1.40495 -2.3227e-44 2.66901 -3.79751e-57 1.72768 1.87564e-40 1.65025 2.26872e-44 2.78202 -2.27796e-33 2.69211 -3.55249e-203 8.47194 0 3.41653 0 2.28845 5.88575e-47 4.19359 -8.9051e-67 2.24277 5.47109e-44 2.91396 4.32788e-39 2.55433 -6.60234e-72 -0.700141 1.82543e-41 2.94813 -5.93423e-70 2.24917 0 2.12069 4.00246e-38 2.27899 1.51175e-46 2.56389 2.59306e-48 1.33821 -1.05193e-41 1.93159 -3.06066e-58 5.30579 0 1.02029 1.12583e-42 1.9231 1.14377e-36 2.06727 1.23923e-42 3.06692 -7.61096e-36 3.55851 1.13514e-36 1.99449 9.45234e-39 2.6937 0 1.68487 -2.71568e-147 2.46829 3.35824e-30 2.62852 1.16679e-49 2.7103 -6.28956e-72 2.64552 -1.23689e-42 2.48172 3.83469e-25 1.63023 5.33432e-49 2.49381 0 10.2413 0 1.27691 1.02322e-52 2.71471 0 2.25539 0 2.71669 -2.82831e-38 1.79959 2.21717e-42 2.48388 -3.308e-89 1.49843 7.63274e-64 4.33395 7.68489e-165 2.68999 -6.39867e-72 2.35739 0 3.16873 1.71404e-56 2.86142 5.73922e-66 1.03347 3.26341e-84 1.47341 -9.2493e-34 0.519376 1.1215e-40 2.59226 -1.7573e-67 1.97322 1.03737e-43 1.79509 -8.38456e-65 2.36712 1.27322e-41 2.50939 0 1.12274 -2.23019e-68 3.10819 -9.39452e-71 2.61394 -5.89749e-64 1.7431 7.83394e-31 0.471716 5.50398e-93 0.504511 3.14122e-40 1.46029 -2.85813e-34 2.11545 4.53574e-30 1.8998 3.79262e-44 2.50726 3.3967e-89 1.56992 5.66562e-41 3.06983 7.55291e-54 2.80048 0 0.756556 -2.81489e-37 3.15683 -3.75955e-314 1.38358 1.41433e-93 -0.48009 -1.18238e-62 2.61753 2.14294e-88 2.63624 1.50707e-45 2.0496 1.62904e-41 2.49218 4.83704e-49 2.63264 5.36848e-44 2.55445 6.8449e-39 1.17857 -9.5685e-54 0.667329 -2.87303e-54 -0.316475 1.55631e-195 -0.34831 -3.75767e-33 1.62537 -2.75548e-61 1.51203 3.34517e-77 11.814 0 2.68951 0 2.03566 -3.18757e-50 2.74657 -9.12083e-71 2.49186 3.66729e-256 2.6399 1.68977e-46 1.78527 1.37685e-28 2.38844 0 2.37868 2.0596e-59 3.18476 0 2.02669 3.01411e-41 0.15091 1.49708e-298 3.12328 -1.52016e-71 2.7911 0 0.427239 9.86529e-25 1.94819 1.77642e-39 1.2874 -1.04117e-75 1.91803 2.24152e-79 2.40413 1.57497e-48 -0.148997 9.46903e-27 2.08855 0 1.83423 5.8297e-63 1.58963 1.96012e-24 -0.602283 3.12409e-208 3.04558 -1.15758e-68 0.799314 -7.90087e-33 2.37008 1.3367e-42 0.961329 -3.03768e-38 2.77403 1.7198e-27 1.19383 -1.51047e-63 2.522 -6.88498e-32 2.66438 -2.34211e-66 1.53077 -1.12461e-35 1.41011 2.07789e-34 1.60485 1.01735e-39 -0.559959 -1.45514e-52 2.20956 1.23211e-41 3.0527 -1.35508e-71 2.50192 2.13832e-47 2.54227 3.85415e-260 2.18307 2.02542e-53 2.99862 0 2.60681 0 2.38837 4.25071e-46 3.91306 0 1.32715 1.59925e-47 2.82531 0 2.28238 -1.4174e-56 2.00074 -1.53579e-45 1.76409 -1.52944e-67 3.31819 -1.71241e-94 0.249144 -3.18137e-37 1.58767 2.38731e-40 -0.717441 -5.46586e-34 1.69374 -1.48189e-75 1.38407 -3.53359e-35 1.5691 -1.28957e-63 2.19086 2.15243e-44 2.62586 1.43583e-47 9.67574 0 1.99408 -2.62001e-47 3.91298 0 1.54262 1.56486e-45 4.37195 0 2.52908 -3.89942e-67 1.97069 3.85976e-43 2.49584 0 2.827 2.99283e-42 2.69916 0 3.04052 0 1.43148 -2.42461e-46 -0.38775 2.28117e-262 1.45478 6.6309e-46 10.5068 0 1.31506 1.30817e-269 2.42531 1.6796e-44 2.60464 -2.39951e-34 2.67239 0 9.00697 0 2.04807 4.6998e-34 2.84329 0 0.740123 -3.79256e-53 1.03059 1.44237e-55 0.639915 5.3024e-35 -1.18815 -3.49822e-260 2.61541 8.74956e-46 2.08049 -1.88721e-57 1.91495 -9.31131e-42 2.41274 1.85329e-32 2.88886 -1.69195e-50 0.73237 0 2.55069 2.15468e-27 2.6821 5.76358e-48 0.632901 -9.98175e-45 2.38719 7.45763e-48 1.99773 3.23221e-48 -1.17024 4.36164e-46 2.68453 -3.39556e-31 3.87583 0 0.664205 -1.18767e-37 -2.12094 6.01522e-147 2.02481 1.54187e-46 -0.0150962 -6.41708e-64 1.97007 1.36785e-42 1.66553 1.6683e-43 2.46833 0 2.29645 6.00138e-88 0.917795 6.18295e-94 0.0590283 -6.58227e-49 1.72214 2.90493e-35 9.81995 0 1.71458 -1.16863e-39 -0.0239938 -4.9067e-64 1.72488 2.32471e-44 2.89347 3.79751e-57 2.03333 1.87564e-40 1.67366 2.26872e-44 1.8519 -2.27796e-33 2.72194 3.55249e-203 8.31752 0 3.15713 0 2.69882 5.88575e-47 -0.636175 -8.9051e-67 2.49204 5.47109e-44 1.14934 4.32788e-39 2.81644 -6.60234e-72 3.1005 1.82543e-41 2.9931 -5.93423e-70 2.67596 0 0.510337 4.00246e-38 2.61642 1.51175e-46 2.69546 2.59306e-48 0.989931 -1.05201e-41 2.01654 3.02804e-58 -3.70847 0 1.07979 1.12583e-42 1.90748 1.14377e-36 2.25913 1.23923e-42 3.43957 -7.61096e-36 3.53034 1.13514e-36 2.28413 9.45235e-39 3.10629 0 2.4295 2.71568e-147 2.38501 3.35824e-30 2.75297 1.16679e-49 2.82988 -6.28956e-72 0.801126 -7.16864e-43 1.67243 3.83469e-25 1.55654 5.33432e-49 1.84058 0 10.1151 0 1.6344 1.02322e-52 2.77657 0 2.29679 0 1.92873 -2.82831e-38 2.12664 2.21717e-42 2.44376 -3.308e-89 2.18328 -7.63274e-64 1.25641 7.68489e-165 2.69934 -6.39867e-72 2.66637 0 2.64872 1.71404e-56 3.59136 -5.73922e-66 2.4378 3.26341e-84 0.730227 -9.2493e-34 0.387893 1.1215e-40 3.2702 -1.7573e-67 1.90476 1.03737e-43 1.80193 8.38456e-65 2.40686 1.27322e-41 3.10485 0 1.31748 -2.23019e-68 3.38575 -9.39452e-71 2.15307 5.89749e-64 0.230323 7.83394e-31 -1.6518 5.50398e-93 0.902942 3.14122e-40 2.40925 -2.85813e-34 -1.59639 4.53574e-30 2.00763 3.79262e-44 2.59093 -3.3967e-89 -0.055511 5.66562e-41 3.73354 7.55291e-54 2.80849 0 -1.67389 -2.81489e-37 3.0461 -3.75955e-314 0.745439 1.41433e-93 -0.679701 -1.18238e-62 2.75021 -2.14294e-88 2.52423 1.50707e-45 1.98742 1.62904e-41 2.43008 4.83704e-49 0.686637 5.36848e-44 2.66471 6.8449e-39 0.359722 -9.5685e-54 0.329267 -2.87303e-54 -1.13248 -1.55631e-195 -1.21027 -3.75767e-33 0.806717 -2.75548e-61 1.77519 -3.34517e-77 11.5457 0 2.84284 0 1.91661 -3.18757e-50 2.72379 -9.12083e-71 3.64742 3.66729e-256 2.62381 1.68977e-46 -2.11456 1.37685e-28 2.46216 0 2.61805 2.0596e-59 3.11126 0 2.12121 3.01411e-41 -2.18446 1.49708e-298 2.96355 -1.52016e-71 2.85207 0 -0.0129227 9.86529e-25 1.71829 1.77642e-39 -0.257531 -1.04117e-75 1.88065 -2.24152e-79 2.51992 1.57497e-48 -0.838126 9.46903e-27 2.18719 0 1.29304 5.8297e-63 -1.85925 1.96012e-24 -1.09285 -3.12409e-208 2.8638 -1.15758e-68 -0.218104 -7.90087e-33 2.26222 1.3367e-42 0.306729 -3.03768e-38 -1.62605 1.7198e-27 0.462469 -1.51047e-63 -0.135047 -6.88498e-32 2.54881 -2.34211e-66 -2.08426 -1.12461e-35 1.16272 2.07789e-34 1.78337 1.01735e-39 -1.70298 -1.45514e-52 2.16621 1.23211e-41 3.04392 -1.35508e-71 2.53355 2.13832e-47 1.32948 3.85415e-260 0.0644563 2.02542e-53 2.80057 0 2.4591 0 2.4384 4.25071e-46 3.7711 0 1.16442 1.59925e-47 1.70518 0 1.81643 -1.4174e-56 0.263384 -1.53579e-45 1.53286 -1.52944e-67 3.56717 -1.71241e-94 -0.279328 -3.18137e-37 1.22407 2.38731e-40 1.19317 -5.46586e-34 1.74043 -1.48189e-75 1.34781 -3.53359e-35 1.50067 -1.28957e-63 2.48171 2.15243e-44 2.67711 1.43583e-47 9.50906 0 1.76796 -2.62001e-47 3.2789 0 1.56251 1.56486e-45 4.45691 0 2.25312 -3.89942e-67 1.83916 3.85976e-43 2.52686 0 -1.07355 2.99283e-42 2.86389 0 2.78054 0 1.44548 -2.42461e-46 -1.20143 2.28117e-262 1.33082 6.6309e-46 10.4126 0 1.44977 1.30817e-269 2.54229 1.6796e-44 2.70221 -2.39951e-34 2.65618 0 9.22699 0 1.85902 4.6998e-34 2.88398 0 -0.187819 -3.79256e-53 1.09257 1.44237e-55 -1.23433 5.3024e-35 -0.506695 -3.49822e-260 2.68627 8.74956e-46 2.13419 -1.88721e-57 2.60027 -9.31131e-42 -1.36384 1.85329e-32 2.99358 -1.69195e-50 0.518169 0 1.89408 2.15468e-27 2.89922 5.76358e-48 -0.516151 -9.98175e-45 2.60234 7.45763e-48 1.9274 3.23221e-48 -1.07424 4.36164e-46 3.2263 -3.39556e-31 3.96193 0 -0.504709 -1.18767e-37 -5.0858 -6.01522e-147 1.94102 1.54187e-46 -0.276124 -6.41708e-64 0.759757 1.36785e-42 1.97869 1.6683e-43 2.36116 0 2.25142 -6.00138e-88 0.111353 6.18295e-94 -0.0912673 -6.58227e-49 1.16875 2.90493e-35 10.022 0 0.894454 -1.16863e-39 -0.400575 -4.9067e-64 1.57439 2.32471e-44 2.69478 3.79751e-57 1.65523 1.87564e-40 1.8955 2.26872e-44 0.579554 -2.27796e-33 2.14262 3.55249e-203 8.63642 0 1.44291 0 2.70103 5.88575e-47 -0.787371 -8.9051e-67 2.29548 5.47109e-44 -0.502405 4.32788e-39 2.79237 -6.60234e-72 3.20759 1.82543e-41 2.94382 -5.93423e-70 2.56848 0 -0.45846 4.00246e-38 2.62764 1.51175e-46 2.57535 2.59306e-48 1.7285 -1.05201e-41 1.83027 3.02804e-58 -3.06617 0 1.04964 1.12583e-42 1.75934 1.14377e-36 2.28799 1.23923e-42 2.5222 -7.61096e-36 1.01698 1.13514e-36 2.1603 9.45235e-39 3.04653 0 2.8347 -2.71568e-147 -1.12418 3.35824e-30 2.93296 1.16679e-49 2.79817 -6.28956e-72 0.702298 -7.16864e-43 0.859847 3.83469e-25 1.65427 5.33432e-49 1.63126 0 10.2479 0 1.52004 1.02322e-52 2.76515 0 2.57181 0 2.53969 -2.82831e-38 1.99918 2.21717e-42 1.99125 -3.308e-89 0.222959 -7.63274e-64 -0.520003 7.68489e-165 2.81846 -6.39867e-72 2.68906 0 0.58328 1.71404e-56 1.62147 -5.73922e-66 2.54342 -3.26341e-84 -0.807059 -9.2493e-34 -0.0604866 1.1215e-40 3.11782 -1.7573e-67 2.16787 1.03737e-43 1.74002 8.38456e-65 2.60056 1.27322e-41 2.85202 0 0.538946 -2.23019e-68 3.20439 -9.39452e-71 1.72703 5.89749e-64 0.0488288 7.83394e-31 -1.60594 -5.50398e-93 1.09366 3.14122e-40 1.47919 -2.85813e-34 -1.44174 4.53574e-30 1.71467 3.79262e-44 2.83216 -3.3967e-89 0.210868 5.66562e-41 3.23078 7.55291e-54 2.70845 0 -2.33418 -2.81489e-37 2.87288 -3.75955e-314 0.449372 1.41433e-93 -0.609403 -1.18238e-62 2.51868 -2.14294e-88 2.42248 1.50707e-45 1.7681 1.62904e-41 2.39407 4.83704e-49 -0.201462 5.36848e-44 2.55022 6.8449e-39 0.38914 -9.5685e-54 1.62141 -2.87303e-54 -2.02067 -1.55631e-195 -1.05728 -3.75767e-33 0.614771 -2.75548e-61 1.39183 -3.34517e-77 11.6729 0 2.83694 0 1.97824 -3.18757e-50 2.67204 -9.12083e-71 2.64241 3.66729e-256 2.54701 1.68977e-46 -2.16318 1.37685e-28 2.3778 0 2.73947 2.0596e-59 3.22181 0 2.0845 3.01411e-41 -2.27976 1.49708e-298 3.05282 -1.52016e-71 2.85895 0 0.0800216 9.86529e-25 1.99628 1.77642e-39 -0.459117 -1.04117e-75 2.14637 -2.24152e-79 2.56303 1.57497e-48 -0.0869759 9.46903e-27 2.03828 0 1.43085 5.8297e-63 -1.65373 1.96012e-24 2.01079 -3.12409e-208 3.01221 -1.15758e-68 0.298522 -7.90087e-33 2.18565 1.3367e-42 -0.170632 -3.03768e-38 -1.91186 1.7198e-27 0.878455 -1.51047e-63 -0.965307 -6.88498e-32 2.60402 -2.34211e-66 -2.74423 -1.12461e-35 1.33593 2.07789e-34 1.62474 1.01735e-39 -2.57562 -1.45514e-52 2.27232 1.23211e-41 2.96633 -1.35508e-71 2.56831 2.13832e-47 -0.953402 3.85415e-260 0.0364639 2.02542e-53 2.68176 0 2.44447 0 2.53995 4.25071e-46 3.64744 0 1.17474 1.59925e-47 1.46981 0 1.65269 -1.4174e-56 -1.9702 -1.53579e-45 1.69677 -1.52944e-67 3.26638 -1.71241e-94 -0.348693 -3.18137e-37 1.23879 2.38731e-40 1.85466 -5.46586e-34 0.904609 -1.48189e-75 1.1934 -3.53359e-35 1.4232 -1.28957e-63 2.37817 2.15243e-44 2.56752 1.43583e-47 9.62576 0 1.81486 -2.62001e-47 3.35981 0 1.36755 1.56486e-45 4.29125 0 2.12408 -3.89942e-67 1.94898 3.85976e-43 2.45086 0 -1.44305 2.99283e-42 2.90061 0 2.79363 0 1.29625 -2.42461e-46 0.527401 2.28117e-262 1.32575 6.6309e-46 10.3575 0 0.756935 1.30817e-269 2.55689 1.6796e-44 -1.7374 -2.39951e-34 2.51549 0 9.08811 0 1.80445 4.6998e-34 2.82137 0 0.659208 -3.79256e-53 1.09035 1.44237e-55 0.187809 5.3024e-35 -0.752405 -3.49822e-260 2.4323 8.74956e-46 2.23552 -1.88721e-57 2.31745 -9.31131e-42 -1.37041 1.85329e-32 3.03114 -1.69195e-50 0.770446 0 -2.10168 2.15468e-27 2.67654 5.76358e-48 -0.432685 -9.98175e-45 2.48619 7.45763e-48 2.02097 3.23221e-48 -0.968446 4.36164e-46 3.07676 -3.39556e-31 4.02163 0 -0.420197 -1.18767e-37 -5.41603 -6.01522e-147 1.9545 1.54187e-46 -0.859291 -6.41708e-64 -0.795856 1.36785e-42 1.61654 1.6683e-43 2.29793 0 2.16237 -6.00138e-88 0.43403 6.18295e-94 0.243686 -6.58227e-49 1.24538 2.90493e-35 10.012 0 1.09003 -1.16863e-39 -1.46853 -4.9067e-64 1.68346 2.32471e-44 2.76325 3.79751e-57 1.79033 1.87564e-40 1.99357 2.26872e-44 0.362539 -2.27796e-33 1.93979 3.55249e-203 8.49535 0 1.72861 0 2.6601 5.88575e-47 -0.639485 -8.9051e-67 2.60078 5.47109e-44 -0.517867 4.32788e-39 2.92858 -6.60234e-72 3.15972 1.82543e-41 2.91542 -5.93423e-70 2.58434 0 -0.813773 4.00246e-38 2.69749 1.51175e-46 2.81719 2.59306e-48 1.60782 -1.05201e-41 2.03452 3.02804e-58 -2.98729 0 1.0387 1.12583e-42 1.64727 1.14377e-36 1.93173 1.23923e-42 1.42832 -7.61096e-36 0.818597 1.13514e-36 2.3376 9.45235e-39 3.15097 0 2.67367 -2.71568e-147 -1.08762 3.35824e-30 2.80879 1.16679e-49 3.04267 -6.28956e-72 0.578036 -7.16864e-43 0.53846 3.83469e-25 1.67456 5.33432e-49 1.80418 0 10.2204 0 1.31212 1.02322e-52 2.52729 0 2.44473 0 2.88866 -2.82831e-38 2.00295 2.21717e-42 1.87004 -3.308e-89 1.19339 -7.63274e-64 0.00599653 7.68489e-165 2.84384 -6.39867e-72 2.64539 0 -1.58451 1.71404e-56 -0.406156 -5.73922e-66 2.65816 -3.26341e-84 -0.616875 -9.2493e-34 0.0328643 1.1215e-40 3.35189 -1.7573e-67 1.92946 1.03737e-43 1.47747 8.38456e-65 2.64065 1.27322e-41 3.06073 0 0.139468 -2.23019e-68 3.44022 -9.39452e-71 0.745704 5.89749e-64 0.046246 7.83394e-31 -2.02074 -5.50398e-93 0.866372 3.14122e-40 1.95231 2.8582e-34 -1.425 4.53574e-30 1.75882 -3.79262e-44 2.77265 -3.3967e-89 -0.0640948 5.66562e-41 1.59339 7.55293e-54 2.75579 0 -1.74503 2.81489e-37 3.12667 -3.75955e-314 1.10065 -1.41433e-93 -0.384414 -1.18238e-62 2.6722 -2.14294e-88 2.44833 -1.50707e-45 1.81317 -1.62904e-41 2.58247 -4.83704e-49 0.364766 5.36848e-44 2.58549 -6.8449e-39 0.197482 -9.56377e-54 1.09751 -2.87303e-54 -1.79785 -1.55631e-195 -0.0489862 3.75767e-33 0.8813 -2.75548e-61 1.61819 -3.34517e-77 11.6444 0 2.9008 0 1.9019 3.18757e-50 2.76235 -9.12083e-71 2.66944 3.66729e-256 2.63956 -1.68977e-46 -1.77797 1.37685e-28 2.503 0 2.64908 -1.10133e-58 2.92824 0 2.27726 -3.01411e-41 -2.26423 1.49708e-298 2.99541 -1.52016e-71 3.02638 0 -0.0558067 9.86529e-25 2.00519 -1.77642e-39 0.29035 -1.04117e-75 2.52228 -2.24152e-79 2.64768 -1.57497e-48 -0.318312 9.46903e-27 2.02406 0 0.910185 5.8297e-63 -1.78828 1.96012e-24 1.47759 -3.12409e-208 2.89981 -1.15758e-68 -0.0559229 -7.90087e-33 2.25282 -1.3367e-42 0.292258 3.03768e-38 -1.90405 1.7198e-27 0.68906 -1.51047e-63 -0.750793 -6.88498e-32 2.85956 -2.34211e-66 -2.14421 1.12461e-35 1.17387 -2.07789e-34 1.49467 -1.01735e-39 -1.84957 -1.45514e-52 2.2196 1.23211e-41 3.10637 -1.35508e-71 2.46439 -2.13833e-47 -0.978026 3.85415e-260 -0.862115 2.02542e-53 2.76113 0 2.54989 0 2.37152 -4.25071e-46 3.26243 0 1.10017 -1.59925e-47 0.174119 0 1.51356 -1.4174e-56 -3.35055 -1.53579e-45 1.65243 -1.52944e-67 3.19432 1.71241e-94 -0.0855608 -3.18137e-37 1.34187 2.38731e-40 1.27891 -5.46586e-34 0.723954 -1.48189e-75 1.18259 -3.53359e-35 1.26306 -1.28957e-63 2.40679 -2.15243e-44 2.56909 -1.43583e-47 9.50132 0 1.74983 -2.62001e-47 3.42888 0 1.4324 -1.56486e-45 4.15775 0 1.32144 -3.89942e-67 1.95384 -3.85976e-43 2.3561 0 -1.72429 2.99284e-42 2.71296 0 3.03401 0 0.937876 2.42461e-46 -0.807069 2.28117e-262 1.29265 -6.6309e-46 10.2647 0 0.0196198 1.30817e-269 2.47763 -1.6796e-44 -1.80235 -2.39951e-34 2.58953 0 9.04833 0 1.82091 -4.6998e-34 2.78717 0 2.05356 3.79256e-53 0.635771 -1.44237e-55 -0.020905 5.3024e-35 -0.762835 -3.49822e-260 2.49232 -8.74956e-46 2.30993 -1.88721e-57 1.38574 -9.31115e-42 -1.66644 1.85329e-32 2.77385 1.69195e-50 -0.728451 0 -2.1103 2.15468e-27 2.68709 -5.76358e-48 -0.326808 -9.98175e-45 2.41701 -7.45763e-48 1.85261 -3.23221e-48 -0.410699 4.36164e-46 3.03841 -3.39556e-31 3.97912 0 -0.649381 -1.18767e-37 -5.56408 -6.01522e-147 1.75088 -1.56164e-46 -1.45112 -6.41708e-64 -1.20162 1.36785e-42 1.62603 -1.6683e-43 2.31455 0 2.17475 -6.00138e-88 0.261351 -6.18295e-94 0.366968 8.02284e-49 1.16467 2.90493e-35 9.90833 0 0.844133 1.16858e-39 -1.07706 -4.9067e-64 1.63778 -2.32474e-44 2.86217 -3.79751e-57 1.90791 -1.87564e-40 1.95266 -2.26872e-44 0.821811 2.27796e-33 1.97007 3.55249e-203 8.31573 0 -0.406366 0 2.70483 -5.88575e-47 -1.02015 -8.9051e-67 2.52741 -5.47109e-44 -0.792142 4.32788e-39 2.70448 -6.60234e-72 2.34683 1.82543e-41 2.89679 -5.93423e-70 2.6324 0 -0.622142 4.67645e-38 2.79613 -1.51175e-46 2.71671 -2.59306e-48 0.876444 -1.05193e-41 1.95168 -3.06066e-58 -2.88408 0 1.04861 -1.12583e-42 1.61649 -1.14377e-36 2.09883 -1.23923e-42 1.6477 1.07647e-34 1.03499 1.13581e-36 2.22563 -9.45265e-39 2.93762 0 2.67797 -2.71568e-147 -1.13124 3.35824e-30 2.93224 -1.16679e-49 2.82426 -6.28956e-72 0.774781 -7.16864e-43 0.749454 3.83469e-25 1.55071 -5.33432e-49 0.65114 0 10.2194 0 0.553586 1.02322e-52 2.73786 0 2.63431 0 2.25543 2.82831e-38 1.891 -2.21717e-42 1.7877 3.308e-89 1.03177 -7.63274e-64 -0.161981 7.68489e-165 2.84799 -6.39867e-72 2.7647 0 -1.20146 1.71404e-56 -0.592832 -5.73922e-66 2.51899 -3.26341e-84 -0.565335 9.2493e-34 -0.0115284 1.1215e-40 3.03232 -1.7573e-67 2.10312 -1.03737e-43 1.63704 8.38456e-65 2.55896 -1.27322e-41 2.89341 0 -0.424705 -2.23019e-68 3.4532 -9.39452e-71 0.489971 5.89749e-64 -0.0471649 7.83394e-31 1.62651 5.50398e-93 0.792966 3.14122e-40 1.83728 2.8582e-34 -1.55883 4.53574e-30 1.98717 -3.79262e-44 2.54535 -3.3967e-89 0.140473 5.66562e-41 0.984562 7.55293e-54 2.74386 0 -1.86464 2.81489e-37 3.02274 3.75955e-314 0.975426 -1.41433e-93 -0.540053 -1.18238e-62 2.74548 -2.14294e-88 2.51832 -1.50707e-45 1.62113 -1.62904e-41 2.51538 -4.83704e-49 0.567231 5.36848e-44 2.63203 -6.8449e-39 0.641787 -9.56377e-54 0.987555 -2.87303e-54 -1.70749 -1.55631e-195 1.95542 3.75767e-33 1.06843 -2.75548e-61 1.33983 -3.34517e-77 -9.67828 0 2.77533 0 2.09839 3.18757e-50 2.74733 -9.12083e-71 2.73178 3.66729e-256 2.76887 -1.68977e-46 -1.67978 1.37685e-28 2.47278 0 2.76547 -1.10133e-58 3.02775 0 2.14574 -3.01411e-41 0.287186 1.49708e-298 3.07863 -1.52016e-71 2.98921 0 0.15219 9.86529e-25 1.95015 -1.77642e-39 0.178395 -1.04117e-75 2.57728 -2.24152e-79 2.39641 -1.57497e-48 -0.434862 9.46903e-27 2.14923 0 0.927974 5.8297e-63 -1.67925 1.96012e-24 1.28059 -3.12409e-208 2.83359 -1.15758e-68 0.666168 -7.90087e-33 2.32619 -1.3367e-42 0.549709 3.03768e-38 -1.97966 1.7198e-27 1.17025 -1.51047e-63 -0.859799 -6.88498e-32 2.76792 -2.34211e-66 -1.00506 1.12461e-35 1.15919 -2.07789e-34 1.69803 -1.01735e-39 -1.6656 -1.45514e-52 2.4985 1.23211e-41 3.0867 -1.35508e-71 2.44217 -2.13833e-47 -0.768201 3.85415e-260 -0.2172 2.02542e-53 2.63463 0 2.60802 0 2.54773 -4.25071e-46 -2.09501 0 1.0068 -1.59925e-47 -0.971887 0 0.619339 -1.4174e-56 -3.46427 -1.53579e-45 -0.472515 -1.52944e-67 -0.81171 1.71241e-94 1.41342 -3.18137e-37 1.46991 2.38731e-40 1.4329 -5.46586e-34 0.669486 -1.48189e-75 1.20885 -3.53359e-35 0.740556 -1.28957e-63 2.40491 -2.15243e-44 2.55224 -1.43583e-47 -7.59221 0 1.87408 -2.62001e-47 -2.28454 0 1.59542 -1.56486e-45 -1.63876 0 1.2591 -3.89942e-67 1.98677 -3.85976e-43 -0.554854 0 -2.15689 2.99284e-42 2.72353 0 2.88362 0 -0.00616215 2.42461e-46 -0.437812 2.28117e-262 1.29251 -6.6309e-46 -7.86044 0 -0.18031 1.30817e-269 2.45907 -1.6796e-44 -1.67475 -2.39951e-34 2.63517 0 -7.70734 0 1.78485 -4.6998e-34 3.03472 0 1.97302 3.79256e-53 0.373261 -1.44237e-55 -0.0384998 5.3024e-35 2.3735 -3.49822e-260 2.49438 -8.74956e-46 2.34935 -1.88721e-57 1.35477 -9.31115e-42 -1.75062 1.85329e-32 2.81795 1.69195e-50 -0.9871 0 -2.00134 2.15468e-27 2.80824 -5.76358e-48 0.59982 -9.98175e-45 2.66375 -7.45763e-48 1.72821 -3.23221e-48 -0.551074 4.36164e-46 3.27547 -3.39556e-31 -1.43753 0 -0.485662 -1.18767e-37 -2.50088 -6.01522e-147 1.90894 -1.56164e-46 -1.54492 -6.41708e-64 -1.53522 1.36785e-42 1.57566 -1.6683e-43 2.15375 0 2.06004 -6.00138e-88 -0.279766 -6.18295e-94 0.228027 8.02284e-49 0.947842 2.90493e-35 -7.70825 0 0.847021 1.16858e-39 -1.23276 -4.9067e-64 1.69477 -2.32474e-44 2.64038 -3.79751e-57 1.64939 -1.87564e-40 1.64206 -2.26872e-44 0.625443 2.27796e-33 2.04442 3.55249e-203 -6.05554 0 -2.41463 0 2.82956 -5.88575e-47 2.62361 -8.9051e-67 2.46409 -5.47109e-44 -1.01429 4.32788e-39 2.79514 -6.60234e-72 2.53488 1.82543e-41 2.83969 -5.93423e-70 2.47654 0 1.25878 4.67645e-38 2.61121 -1.51175e-46 2.83643 -2.59306e-48 1.18274 -1.05193e-41 1.96477 -3.06066e-58 -3.03322 0 1.09533 -1.12583e-42 1.71943 -1.14377e-36 2.09113 -1.23923e-42 1.30101 1.07647e-34 1.09122 1.13581e-36 2.3823 -9.45265e-39 2.95799 0 2.54808 -2.71568e-147 -1.30274 3.35824e-30 2.69301 -1.16679e-49 2.87142 -6.28956e-72 0.645828 -7.16864e-43 0.581704 3.83469e-25 1.37278 -5.33432e-49 1.01481 0 -7.83466 0 0.585863 1.02322e-52 2.70127 0 2.37883 0 2.14537 2.82831e-38 1.98459 -2.21717e-42 0.0594109 3.308e-89 1.22927 -7.63274e-64 -0.564123 7.68489e-165 2.86078 -6.39867e-72 2.56268 0 -1.0945 1.71404e-56 0.779285 -5.73922e-66 2.84528 -3.26341e-84 0.393724 9.2493e-34 0.323651 1.1215e-40 3.31972 -1.7573e-67 2.10102 -1.03737e-43 -0.0565267 8.38456e-65 2.53422 -1.27322e-41 2.96147 0 -0.860218 -2.23019e-68 3.46014 -9.39452e-71 0.547466 5.89749e-64 0.194565 7.83394e-31 0.138401 5.50398e-93 0.820057 3.14122e-40 1.5521 2.8582e-34 2.25893 4.53574e-30 1.78011 -3.79262e-44 2.54245 -3.3967e-89 0.784916 5.66562e-41 0.935181 7.55293e-54 2.72554 0 0.580768 2.81489e-37 2.75904 3.75955e-314 0.922557 -1.41433e-93 -0.388849 -1.18238e-62 2.80034 -2.14294e-88 2.65364 -1.50707e-45 1.69871 -1.62904e-41 2.12132 -4.83704e-49 0.0229192 5.36848e-44 3.21955 -6.8449e-39 0.695193 -9.56377e-54 1.25742 -2.87303e-54 2.84599 -1.55631e-195 0.177322 3.75767e-33 1.47093 -2.75548e-61 1.33892 -3.34517e-77 -9.71523 0 2.88418 0 2.12179 3.18757e-50 2.74685 -9.12083e-71 3.22066 3.66729e-256 2.70452 -1.68977e-46 1.95782 1.37685e-28 2.47314 0 2.26008 -1.10133e-58 2.69868 0 2.2388 -3.01411e-41 -0.0465634 -1.49708e-298 2.87934 -1.52016e-71 2.59085 0 0.373759 9.86529e-25 2.03637 -1.77642e-39 1.30658 -1.04117e-75 2.19393 -2.24152e-79 2.52715 -1.57497e-48 -0.0435783 9.46903e-27 2.27803 0 1.14816 5.8297e-63 1.6069 1.96012e-24 1.32978 -3.12409e-208 2.93468 -1.15758e-68 -0.227337 -7.90087e-33 2.3305 -1.3367e-42 0.78423 3.03768e-38 0.306751 1.7198e-27 1.26492 -1.51047e-63 0.18464 -6.88498e-32 2.45614 -2.34211e-66 0.265588 1.12461e-35 1.62205 -2.07789e-34 1.61343 -1.01735e-39 -2.35122 -1.45514e-52 3.07763 1.23211e-41 3.01319 -1.35508e-71 2.11903 -2.13833e-47 -0.572332 3.85415e-260 0.162576 2.02542e-53 2.75422 0 2.56968 0 2.22708 -4.25071e-46 -2.03946 0 1.30289 -1.59925e-47 -1.12028 0 0.246084 -1.4174e-56 -2.24406 -1.53579e-45 -0.576063 -1.52944e-67 -0.796532 1.71241e-94 0.572662 -3.18137e-37 1.22888 2.38731e-40 2.11136 -5.46586e-34 0.738113 -1.48189e-75 2.19446 -3.53359e-35 1.05217 -1.28957e-63 2.01207 -2.15243e-44 2.59944 -1.43583e-47 -7.61031 0 1.85402 -2.62001e-47 -2.38883 0 1.56269 -1.56486e-45 -1.73113 0 1.38939 -3.89942e-67 1.84541 -3.85976e-43 -0.656625 0 1.1345 2.99284e-42 2.8859 0 2.61748 0 0.52633 2.42461e-46 0.164086 2.28117e-262 1.32921 -6.6309e-46 -7.91076 0 -0.425517 1.30817e-269 2.30601 -1.6796e-44 2.63651 -2.39951e-34 2.11547 0 -7.40228 0 1.65614 -4.6998e-34 2.76108 0 3.369 3.79256e-53 0.681803 -1.44237e-55 0.465789 5.3024e-35 -0.846052 -3.49822e-260 2.5225 -8.74956e-46 2.13434 -1.88721e-57 1.39809 -9.31115e-42 2.21993 1.85329e-32 2.97447 1.69195e-50 -1.05453 0 2.11583 2.15468e-27 2.86563 -5.76358e-48 1.45548 -9.98175e-45 2.32403 -7.45763e-48 1.90799 -3.23221e-48 -0.449765 4.36164e-46 2.888 -3.39556e-31 -1.37368 0 0.412352 -1.18767e-37 -4.18945 -6.01522e-147 1.74502 -1.56164e-46 -1.45158 -6.41708e-64 -0.246649 1.36785e-42 1.5024 -1.6683e-43 2.22412 0 2.01725 -6.00138e-88 -0.471717 -6.18295e-94 0.91145 8.02284e-49 0.398153 2.90493e-35 -7.66776 0 0.125894 1.16858e-39 -0.636907 -4.9067e-64 1.60591 -2.32474e-44 2.64037 -3.79751e-57 1.8031 -1.87564e-40 1.66506 -2.26872e-44 1.70405 2.27796e-33 2.15518 3.55249e-203 -5.84892 0 -1.21938 0 2.76009 -5.88575e-47 0.0745703 -8.9051e-67 2.13854 -5.47109e-44 -0.145572 4.32788e-39 2.62338 -6.60234e-72 0.760215 1.82543e-41 2.90871 -5.93423e-70 2.64051 0 1.41829 4.67645e-38 2.47679 -1.51175e-46 2.57098 -2.59306e-48 -0.263131 -1.05193e-41 1.90017 -3.06066e-58 5.05746 0 1.11803 -1.12583e-42 1.78922 -1.14377e-36 1.96367 -1.23923e-42 1.30986 1.07647e-34 3.06578 1.13581e-36 2.00226 -9.45265e-39 2.67646 0 1.9894 -2.71568e-147 2.07889 3.35824e-30 2.68516 -1.16679e-49 3.05116 -6.28956e-72 0.80322 -7.16864e-43 1.7513 3.83469e-25 1.25673 -5.33432e-49 -0.12084 0 -7.96698 0 0.685109 1.02322e-52 2.75588 0 2.49824 0 1.72212 2.82831e-38 1.65316 -2.21717e-42 0.528052 3.308e-89 0.806022 -7.63274e-64 0.385611 7.68489e-165 2.77142 -6.39867e-72 2.53281 0 0.982383 1.71404e-56 0.872458 -5.73922e-66 2.69483 -3.26341e-84 0.38168 9.2493e-34 0.12753 1.1215e-40 3.31799 -1.7573e-67 1.93229 -1.03737e-43 0.113886 8.38456e-65 2.55113 -1.27322e-41 2.74666 0 -0.261889 -2.23019e-68 3.51913 -9.39452e-71 0.480929 5.89749e-64 -0.785335 7.83394e-31 -1.13946 5.50398e-93 -0.885691 3.14122e-40 0.255677 2.8582e-34 1.99554 4.53574e-30 -1.43101 -3.79262e-44 -1.30045 3.3967e-89 0.427778 5.66562e-41 -1.6781 7.55293e-54 -2.34977 0 0.0776516 2.81489e-37 -1.7872 3.75955e-314 0.119752 -1.41433e-93 -1.13954 -1.18238e-62 -1.27353 2.14294e-88 -2.24135 -1.50707e-45 -1.28652 -1.62904e-41 -2.0384 -4.83704e-49 0.156945 5.36848e-44 -2.45417 -6.8449e-39 0.00439113 -9.56377e-54 0.329947 -2.87303e-54 1.81768 -1.55631e-195 0.095726 3.75767e-33 0.242236 -2.75548e-61 -0.995079 3.34517e-77 -11.5313 0 -1.50565 0 -0.914571 3.18757e-50 -2.13724 -9.12083e-71 2.82383 3.66729e-256 -2.14907 -1.68977e-46 1.75103 1.37685e-28 -2.32429 0 -2.10453 -1.10133e-58 -2.77773 0 -1.83524 -3.01411e-41 -0.585913 -1.49708e-298 -2.06491 -1.52016e-71 -2.46628 0 1.17457 9.86529e-25 -1.7064 -1.77642e-39 0.721168 -1.04117e-75 -1.10446 2.24152e-79 -2.038 -1.57497e-48 1.50105 9.46903e-27 -1.59408 0 -1.29699 5.8297e-63 1.13855 1.96012e-24 0.815305 -3.12409e-208 -2.48626 -1.15758e-68 -1.60648 -7.90087e-33 -1.55365 -1.3367e-42 -0.533453 3.03768e-38 0.00263076 1.7198e-27 1.07973 -1.51047e-63 -0.262881 -6.88498e-32 -1.81245 -2.34211e-66 1.7621 1.12461e-35 -0.834609 -2.07789e-34 -1.06112 -1.01735e-39 -3.0833 -1.45514e-52 -2.03683 1.23211e-41 -2.2871 -1.35508e-71 -1.74588 -2.13833e-47 -1.21653 3.85415e-260 0.254589 2.02542e-53 -2.73261 0 -2.08915 0 -1.85731 -4.25071e-46 -3.45109 0 -0.772685 -1.59925e-47 -2.72989 0 -2.04509 -1.4174e-56 -3.12312 -1.53579e-45 -2.29525 -1.52944e-67 -2.80222 1.71241e-94 -0.153464 -3.18137e-37 -1.69054 2.38731e-40 1.43159 -5.46586e-34 -2.87941 -1.48189e-75 -1.0371 -3.53359e-35 -1.35571 -1.28957e-63 -1.59945 -2.15243e-44 -2.38132 -1.43583e-47 -9.46789 0 -1.88604 -2.62001e-47 -3.40657 0 -0.877217 -1.56486e-45 -3.29722 0 -1.41089 -3.89942e-67 -1.58206 -3.85976e-43 -2.21603 0 0.762219 2.99284e-42 -2.19286 0 -2.12081 0 -0.121519 2.42461e-46 -0.0688504 2.28117e-262 -0.883177 -6.6309e-46 -10.4793 0 -0.861725 1.30817e-269 -1.91873 -1.6796e-44 2.66661 -2.39951e-34 -2.30002 0 -8.78593 0 -0.396743 -4.6998e-34 -2.32523 0 1.26583 3.79256e-53 -0.743723 -1.44237e-55 1.35659 5.3024e-35 -1.84855 -3.49822e-260 -2.3426 -8.74956e-46 -1.63306 -1.88721e-57 1.1824 -9.31115e-42 1.8234 1.85329e-32 -2.82573 1.69195e-50 -2.70547 0 2.03996 2.15468e-27 -2.43649 -5.76358e-48 -0.307741 -9.98175e-45 -2.26841 -7.45763e-48 -0.75841 -3.23221e-48 -0.457574 4.36164e-46 -0.834603 -3.39556e-31 -3.37031 0 0.256025 -1.18767e-37 -5.23565 -6.01522e-147 -2.03974 -1.56164e-46 -2.52726 -6.41708e-64 -2.04132 1.36785e-42 -0.842269 -1.6683e-43 -1.75198 0 -1.387 6.00138e-88 -1.37397 -6.18295e-94 1.21512 8.02284e-49 0.0794923 2.90493e-35 -9.72439 0 -0.875758 1.16858e-39 -1.06238 -4.9067e-64 -1.17825 -2.32474e-44 -2.13644 -3.79751e-57 -1.42772 -1.87564e-40 -1.3591 -2.26872e-44 0.368673 2.27796e-33 1.0563 3.55249e-203 -8.1156 0 -1.77784 0 -1.92331 -5.88575e-47 -2.46928 -8.9051e-67 -1.74567 -5.47109e-44 0.479375 4.32788e-39 -2.24646 -6.60234e-72 0.798115 1.82543e-41 -2.79204 -5.93423e-70 -1.91159 0 1.14187 4.67645e-38 -1.88818 -1.51175e-46 -2.34724 -2.59306e-48 0.582264 -1.05193e-41 -1.997 -3.06066e-58 4.77203 0 -0.680216 -1.12583e-42 -1.19208 -1.14377e-36 -1.52745 -1.23923e-42 0.823682 1.07647e-34 -0.510001 1.13581e-36 -1.55499 -9.45265e-39 -2.81391 0 -2.1858 -2.71568e-147 1.88145 3.35824e-30 -2.71067 -1.16679e-49 -2.2567 -6.28956e-72 -0.857571 -7.16864e-43 -0.132965 3.83469e-25 -1.08417 -5.33432e-49 -0.568064 0 -9.97833 0 -1.65331 1.02322e-52 -2.18347 0 -2.06728 0 0.128271 2.82831e-38 -1.27207 -2.21717e-42 -1.86032 3.308e-89 0.219283 -7.63274e-64 -0.99774 7.68489e-165 -2.45647 -6.39867e-72 -2.16233 0 0.888017 1.71404e-56 -1.7879 -5.73922e-66 -0.599536 3.26341e-84 0.597106 9.2493e-34 0.16734 1.1215e-40 -2.36207 -1.7573e-67 -1.40743 -1.03737e-43 -1.59958 8.38456e-65 -1.65774 -1.27322e-41 -2.51236 0 -0.44721 -2.23019e-68 -2.68307 -9.39452e-71 -2.12936 5.89749e-64 0.415066 7.83394e-31 2.16622 5.50398e-93 -0.820939 3.14122e-40 1.08037 2.8582e-34 1.99165 4.53574e-30 -1.44832 -3.79262e-44 -1.38965 3.3967e-89 -0.0164708 5.66562e-41 -1.29727 7.55293e-54 -2.38693 0 0.077426 2.81489e-37 -1.68055 3.75955e-314 -0.920148 -1.41433e-93 -1.16561 -1.18238e-62 -1.21743 2.14294e-88 -1.95114 -1.50707e-45 -1.22834 -1.62904e-41 -1.87978 -4.83704e-49 0.502642 5.36848e-44 -2.22959 -6.8449e-39 0.187304 6.05302e-54 0.182394 -2.87303e-54 2.06986 -1.55631e-195 1.33949 3.75767e-33 0.446042 -2.75548e-61 -0.844886 3.34517e-77 -11.1918 0 -1.68109 0 -0.908323 3.18757e-50 -2.30391 -9.12083e-71 2.71379 3.66729e-256 -2.3539 -1.68977e-46 1.50667 1.37685e-28 -2.08546 0 -2.19681 -1.10133e-58 -2.75947 0 -1.94781 -3.01411e-41 2.08235 -1.49708e-298 -2.09242 -1.52016e-71 -2.61012 0 1.36277 9.86529e-25 -1.75499 -1.77642e-39 0.688531 -1.04117e-75 -1.12928 2.24152e-79 -2.03067 -1.57497e-48 1.90872 9.46903e-27 -1.66203 0 -0.931783 5.8297e-63 1.0361 1.96012e-24 0.599611 -3.12409e-208 -2.53021 -1.15758e-68 -1.1147 -7.90087e-33 -1.64307 -1.3367e-42 -0.635683 3.03768e-38 0.05397 1.7198e-27 -0.228199 -1.51047e-63 -0.238732 -6.88498e-32 -1.9066 -2.34211e-66 1.27577 1.12461e-35 -0.831529 -2.07789e-34 -0.988286 -1.01735e-39 -2.69799 1.45514e-52 -2.01834 1.23211e-41 -2.13622 -1.35508e-71 -1.70643 -2.13833e-47 -0.80353 3.85415e-260 0.212898 2.02542e-53 -2.47239 0 -2.23222 0 -2.06399 -4.25071e-46 -3.66763 0 -0.79157 -1.59925e-47 -2.38505 0 -1.73539 -1.4174e-56 -3.21656 -1.53579e-45 -2.20665 -1.52944e-67 -2.68719 1.71241e-94 0.821511 -3.18137e-37 -1.87363 2.38731e-40 1.43672 -5.46586e-34 -2.95473 -1.48189e-75 -0.930802 -3.53359e-35 -1.42834 -1.28957e-63 -1.64733 -2.15243e-44 -2.36151 -1.43583e-47 -9.38413 0 -2.13904 -2.62001e-47 -3.00047 0 -0.890206 -1.56486e-45 -3.23632 0 -0.833213 -3.89942e-67 -1.52346 -3.85976e-43 -1.99274 0 1.07088 2.99284e-42 -2.31673 0 -2.24764 0 0.100057 2.42461e-46 -0.0243766 2.28117e-262 -1.08589 -6.6309e-46 -10.3635 0 -0.59458 1.30817e-269 -2.00229 -1.6796e-44 2.63264 -2.39951e-34 -2.38338 0 -8.79524 0 0.0855972 -4.6998e-34 -2.32317 0 0.935564 3.79256e-53 -0.842918 -1.44237e-55 0.968813 5.3024e-35 1.15708 -3.49822e-260 -2.45932 -8.74956e-46 -1.37451 -1.88721e-57 1.1285 -9.31115e-42 2.03098 1.85329e-32 -2.54736 1.69195e-50 -3.45501 0 2.01886 2.15468e-27 -2.47517 -5.76358e-48 -0.153058 -9.98175e-45 -1.98619 -7.45763e-48 -0.773907 -3.23221e-48 -0.982186 4.36164e-46 -0.675329 -3.39556e-31 -3.19261 0 -0.534536 -1.18767e-37 -2.18509 -6.01522e-147 -2.05204 -1.56164e-46 -2.5489 -6.41708e-64 -3.34013 1.36785e-42 -0.727611 -1.6683e-43 -1.93518 0 -1.32646 6.00138e-88 -0.97072 -6.18295e-94 1.57242 8.02284e-49 0.208565 2.90493e-35 -9.69596 0 -0.938006 1.16858e-39 -0.818889 -4.9067e-64 -1.28984 -2.32474e-44 -2.24867 -3.79751e-57 -1.39607 -1.87564e-40 -1.24355 -2.26872e-44 0.183648 2.27796e-33 1.17369 3.55249e-203 -8.20578 0 -1.50749 0 -1.94787 -5.88575e-47 1.19551 -8.9051e-67 -2.0263 -5.47109e-44 0.379947 4.32788e-39 -2.1388 -6.60234e-72 0.833572 1.82543e-41 -2.76152 -5.93423e-70 -2.02132 0 1.19048 4.67645e-38 -1.92467 -1.51175e-46 -2.46785 -2.59306e-48 0.732678 -1.05193e-41 -1.72193 -3.06066e-58 4.69415 0 -0.81345 -1.12583e-42 -1.43346 -1.14377e-36 -1.4866 -1.23923e-42 1.20815 1.07647e-34 -0.34942 1.13581e-36 -1.78744 -9.45265e-39 -2.89271 0 -1.93757 -2.71568e-147 2.37982 3.35824e-30 -2.59856 -1.16679e-49 -2.47481 -6.28956e-72 -0.905363 -7.16864e-43 0.330314 3.83469e-25 -1.15212 -5.33432e-49 -0.315286 0 -9.87245 0 -1.24929 1.02322e-52 -2.29266 0 -1.81244 0 0.0692948 2.82831e-38 -1.40757 -2.21717e-42 -1.83388 3.308e-89 -0.283136 -7.63274e-64 -1.63274 7.68489e-165 -2.53704 -6.39867e-72 -2.22559 0 -0.489924 1.71404e-56 -1.62404 -5.73922e-66 -0.497734 3.26341e-84 0.456189 9.2493e-34 0.0102481 1.1215e-40 -2.41982 -1.7573e-67 -1.51531 -1.03737e-43 -1.37122 8.38456e-65 -1.47675 -1.27322e-41 -2.4616 0 -0.0142948 -2.23019e-68 -2.58089 -9.39452e-71 -1.46016 -9.45892e-64 1.00192 7.83394e-31 2.21457 5.50398e-93 -0.782183 3.14122e-40 -1.97185 2.8582e-34 2.05882 4.53574e-30 -1.45997 -3.79262e-44 -1.34313 3.3967e-89 0.081943 5.66562e-41 -0.86712 7.55293e-54 -2.12453 0 0.158499 2.81489e-37 -1.93359 3.75955e-314 -1.23443 -1.41433e-93 -1.05047 -1.18238e-62 -0.972934 2.14294e-88 -2.26258 -1.50707e-45 -1.19548 -1.62904e-41 -2.09074 -4.83704e-49 0.552396 5.36848e-44 -2.39721 -6.8449e-39 -0.10683 -9.56377e-54 0.00604772 -2.87303e-54 2.06274 -1.55631e-195 1.18109 3.75767e-33 0.328837 -2.75548e-61 -0.977318 3.34517e-77 10.0914 0 -1.72421 0 -1.1831 3.18757e-50 -2.20029 -9.12083e-71 1.23627 -3.66729e-256 -2.45812 -1.68977e-46 1.48899 1.37685e-28 -2.12358 0 -2.17815 -1.10133e-58 -2.70747 0 -1.66424 -3.01411e-41 2.13836 -1.49708e-298 -1.87696 -1.52016e-71 -2.65193 0 1.33056 9.86529e-25 -1.78789 -1.77642e-39 0.767709 -1.04117e-75 -1.01355 2.24152e-79 -2.28278 -1.57497e-48 1.74272 9.46903e-27 -1.86058 0 -1.14866 5.8297e-63 1.04977 1.96012e-24 0.472434 -3.12409e-208 -2.58303 -1.15758e-68 -0.169996 -7.90087e-33 -1.61386 -1.3367e-42 -0.453457 3.03768e-38 0.146474 1.7198e-27 -0.25003 -1.51047e-63 -0.781139 -6.88498e-32 -1.85962 -2.34211e-66 1.32557 1.12461e-35 -1.05181 -2.07789e-34 -1.17101 -1.01735e-39 -2.86894 -1.45514e-52 -2.00937 1.23211e-41 -2.33434 -1.35508e-71 -1.61754 -2.13833e-47 -1.04492 -3.85415e-260 0.283943 2.02542e-53 -2.43298 0 -2.14765 0 -1.99464 -4.25071e-46 1.83981 0 -1.06017 -1.59925e-47 -0.946886 0 -0.730127 -1.4174e-56 -3.29859 -1.53579e-45 0.203544 -1.52944e-67 1.23545 1.71241e-94 0.803812 -3.18137e-37 -1.64118 2.38731e-40 -1.44312 -5.46586e-34 -2.95762 -1.48189e-75 -1.0845 -3.53359e-35 -0.736937 -1.28957e-63 -1.61802 -2.15243e-44 -2.60161 -1.43583e-47 7.51851 0 -1.84105 -2.62001e-47 2.63362 0 -0.96453 -1.56486e-45 2.52393 0 -1.2313 -3.89942e-67 -1.44796 -3.85976e-43 1.00121 0 1.2307 2.99284e-42 -2.43934 0 -2.1743 0 -1.0916 2.42461e-46 0.0549089 -2.28117e-262 -0.902596 -6.6309e-46 7.93877 0 -0.794801 -1.30817e-269 -1.90186 -1.6796e-44 2.78142 -2.39951e-34 -2.21299 0 7.69941 0 0.0554641 -4.6998e-34 -2.36845 0 1.01443 3.79256e-53 -0.248446 -1.44237e-55 1.42488 5.3024e-35 -0.179217 3.49822e-260 -2.50442 -8.74956e-46 -1.67437 -1.88721e-57 0.296885 -9.31115e-42 2.01516 1.85329e-32 -2.75398 1.69195e-50 -2.87648 0 2.29446 2.15468e-27 -2.53365 -5.76358e-48 0.132738 -9.98175e-45 -2.18046 -7.45763e-48 -0.904482 -3.23221e-48 -0.946098 4.36164e-46 -0.885855 -3.39556e-31 2.11713 0 -0.353328 -1.18767e-37 -1.80787 -6.01522e-147 -1.94762 -1.56164e-46 -2.72911 -6.41708e-64 -3.0961 1.36785e-42 -0.965134 -1.6683e-43 -1.80114 0 -1.57546 6.00138e-88 -1.02813 -6.18295e-94 1.54319 8.02284e-49 0.143291 2.90493e-35 7.8167 0 -1.30496 1.16858e-39 -0.645529 -4.9067e-64 -1.09185 -2.32474e-44 -2.13568 -3.79751e-57 -1.40911 -1.87564e-40 -1.08012 -2.26872e-44 0.335259 2.27796e-33 0.513073 3.55249e-203 6.36679 0 -1.9989 0 -2.05679 -5.88575e-47 1.1289 -8.9051e-67 -1.81171 -5.47109e-44 0.11509 4.32788e-39 -2.2471 -6.60234e-72 0.582627 1.82543e-41 -2.82976 -5.93423e-70 -2.0064 0 1.04164 4.67645e-38 -2.05744 -1.51175e-46 -2.25636 -2.59306e-48 -0.832776 -1.05193e-41 -1.85462 -3.06066e-58 3.68462 0 -0.640896 -1.12583e-42 -1.43211 -1.14377e-36 -1.54613 -1.23923e-42 0.963014 1.07647e-34 -0.349578 1.13581e-36 -1.61421 -9.45265e-39 -2.89413 0 -2.06189 -2.71568e-147 2.51649 3.35824e-30 -2.40199 -1.16679e-49 -2.46354 -6.28956e-72 -0.754559 -7.16864e-43 0.184328 3.83469e-25 -1.30731 -5.33432e-49 -0.341968 0 8.23406 0 -1.29754 1.02322e-52 -2.43511 0 -1.90659 0 -1.3056 2.82831e-38 -1.34301 -2.21717e-42 0.236317 3.308e-89 0.103985 -7.63274e-64 -1.25128 7.68489e-165 -2.39123 -6.39867e-72 -1.93835 0 -0.203976 1.71404e-56 -1.75052 -5.73922e-66 -0.560074 3.26341e-84 0.540914 9.2493e-34 0.0487531 1.1215e-40 -2.32208 -1.7573e-67 -1.44976 -1.03737e-43 -0.0183435 8.38456e-65 -1.62362 -1.27322e-41 -2.4236 0 -0.0876618 -2.23019e-68 -2.72918 -9.39452e-71 -1.43988 5.89749e-64 -0.230478 7.83394e-31 2.80111 5.50398e-93 -0.734333 3.14122e-40 -2.65035 2.8582e-34 2.05741 4.53574e-30 -1.35307 -3.79262e-44 -1.43902 3.3967e-89 0.290196 5.66562e-41 -0.667354 7.55293e-54 -2.36285 0 0.282583 2.81489e-37 -1.75227 3.75955e-314 -1.23483 1.41433e-93 -0.338987 1.18238e-62 -1.06287 2.14294e-88 -2.10668 -1.50707e-45 -1.41737 -1.62904e-41 -1.89179 -4.83704e-49 -0.367992 5.36848e-44 -2.30644 -6.8449e-39 -0.32498 -6.04836e-54 0.111385 2.87303e-54 1.69207 -1.55631e-195 1.0894 3.75767e-33 0.21637 2.75548e-61 -0.848783 3.34517e-77 9.7599 0 -1.53701 0 -1.06252 3.18757e-50 -2.24974 -9.12083e-71 1.11036 -3.66729e-256 -2.20765 -1.68977e-46 1.45478 1.37685e-28 -2.05257 0 -1.98999 -1.10133e-58 -2.64426 0 -1.82128 -3.01411e-41 2.23074 -1.49708e-298 -1.92949 -1.52016e-71 -2.6069 0 1.34735 9.86529e-25 -1.69006 -1.77642e-39 1.98946 -1.04117e-75 -1.363 2.24152e-79 -2.29081 -1.57497e-48 2.10637 9.46903e-27 -1.69027 0 -1.035 5.8297e-63 1.05466 1.96012e-24 1.54616 -3.12409e-208 -2.43393 -1.15758e-68 -0.343367 -7.90087e-33 -1.67467 -1.3367e-42 -0.351614 3.03768e-38 0.213617 1.7198e-27 -0.0865985 1.51047e-63 -0.352621 -6.88498e-32 -1.69543 -2.34211e-66 1.35552 1.12461e-35 -1.03295 -2.07789e-34 -1.03844 -1.01735e-39 -3.05941 -1.45514e-52 -2.07371 1.23211e-41 -2.22147 -1.35508e-71 -1.81381 -2.13833e-47 -1.20512 -3.85415e-260 0.0960131 2.02542e-53 -2.45329 0 -2.2649 0 -1.8703 -4.25071e-46 1.86503 0 -0.992943 -1.59925e-47 0.679742 0 -0.808832 1.4174e-56 -1.62829 -1.53579e-45 0.0475307 1.52944e-67 1.3587 -1.71241e-94 0.874161 -3.18137e-37 -1.60391 2.38731e-40 -0.372984 -5.46586e-34 -2.84906 -1.48189e-75 -1.00229 -3.53359e-35 -0.358423 1.28957e-63 -1.57027 -2.15243e-44 -2.42085 -1.43583e-47 7.46806 0 -2.03809 -2.62001e-47 2.39657 0 -1.17849 -1.56486e-45 2.60234 0 -1.13017 3.89942e-67 -1.56308 -3.85976e-43 0.924068 0 1.27131 2.99284e-42 -2.43117 0 -2.22675 0 -0.870622 2.42461e-46 1.56885 -2.28117e-262 -0.981549 -6.6309e-46 7.98482 0 0.520714 -1.30817e-269 -1.9491 -1.6796e-44 2.54758 -2.39951e-34 -2.37475 0 7.90467 0 -0.0746014 -4.6998e-34 -2.34302 0 0.946594 3.79256e-53 -0.265672 -1.44237e-55 1.61841 5.3024e-35 -0.410812 3.49822e-260 -2.27515 -8.74956e-46 -1.67173 -1.88721e-57 1.32884 -9.31115e-42 1.95695 1.85329e-32 -2.57267 1.69195e-50 -1.4748 0 2.07345 2.15468e-27 -2.599 -5.76358e-48 0.068181 -9.98175e-45 -2.03306 -7.45763e-48 -0.77188 -3.23221e-48 -1.10875 4.36164e-46 -0.583515 -3.39556e-31 2.19791 0 -0.507408 -1.18767e-37 -1.89221 -6.01522e-147 -1.93328 -1.56164e-46 -1.95099 -6.41708e-64 -2.83159 1.36785e-42 -0.992404 -1.6683e-43 -1.79382 0 -1.40844 6.00138e-88 -0.649503 6.18295e-94 1.8104 8.02284e-49 0.186327 2.90493e-35 8.0913 0 -1.14317 1.16858e-39 -0.711148 -4.9067e-64 -1.26501 -2.32474e-44 -2.3264 -3.79751e-57 -1.09011 -1.87564e-40 -1.09892 -2.26872e-44 0.376151 2.27796e-33 0.532523 3.55249e-203 6.27168 0 0.023611 0 -2.08402 -5.88575e-47 0.971169 -8.9051e-67 -1.88585 -5.47109e-44 0.212826 4.32788e-39 -2.10411 -6.60234e-72 0.976677 1.82543e-41 -2.74387 -5.93423e-70 -1.89435 0 0.907918 4.67645e-38 -1.79247 -1.51175e-46 -2.22801 -2.59306e-48 -0.389131 -1.05193e-41 -1.8888 -3.06066e-58 3.89055 0 -0.723185 -1.12583e-42 -1.34799 -1.14377e-36 -1.54458 -1.23923e-42 0.978943 1.07647e-34 -0.174148 1.13581e-36 -1.60942 -9.45265e-39 -2.62181 0 -2.04202 -2.71568e-147 2.42985 3.35824e-30 -2.39775 -1.16679e-49 -2.3011 -6.28956e-72 -0.884745 -7.16864e-43 0.0399948 3.83469e-25 -0.983574 -5.33432e-49 -0.32681 0 8.1039 0 -1.32496 1.02322e-52 -2.4489 0 -2.05285 0 -1.37205 2.82831e-38 -1.37154 -2.21717e-42 0.263685 -3.308e-89 0.0718463 7.63274e-64 -1.16956 -7.68489e-165 -2.61469 -6.39867e-72 -2.03696 0 -0.285895 1.71404e-56 -1.67223 -5.73922e-66 -0.696431 3.26341e-84 0.75523 9.2493e-34 0.0625817 1.1215e-40 -2.22665 -1.7573e-67 -1.26966 -1.03737e-43 -0.0072168 -8.38456e-65 -1.51849 -1.27322e-41 -2.42425 0 0.356777 -2.23019e-68 -2.68505 -9.39452e-71 -2.20479 9.45892e-64 -0.542513 -7.83394e-31 2.31657 5.50398e-93 -1.3687 -3.13197e-40 -1.81214 2.8582e-34 2.14103 -4.53574e-30 -1.53964 -3.79262e-44 -1.25515 3.3967e-89 -0.0790448 -5.66562e-41 -0.908027 7.55293e-54 -2.2017 0 0.0208742 2.81489e-37 -1.74447 3.75955e-314 -1.17274 1.41433e-93 -1.37277 1.18238e-62 -1.69541 2.14294e-88 -2.05685 -1.50707e-45 -1.2529 -1.62904e-41 -1.79171 -4.83704e-49 -0.158175 5.36848e-44 -2.32027 -6.8449e-39 -0.233474 -6.04836e-54 0.365364 2.87303e-54 1.44283 -1.55631e-195 1.30097 3.75767e-33 -0.200231 2.75548e-61 -0.80367 3.34517e-77 10.03 0 -1.4983 0 -1.52906 3.18757e-50 -2.36481 -9.12083e-71 1.12959 -3.66729e-256 -2.2196 -1.68977e-46 1.75341 -1.37685e-28 -2.14767 0 -2.1722 -1.10133e-58 -2.72583 0 -1.74018 -3.01411e-41 2.21804 -1.49708e-298 -2.09515 -1.52016e-71 -2.42865 0 1.34453 -9.86529e-25 -1.78543 -1.77642e-39 0.965249 1.04117e-75 -1.65411 2.24152e-79 -1.98411 -1.57497e-48 2.44892 -9.46903e-27 -1.75853 0 -0.882946 5.8297e-63 1.19748 -1.96012e-24 0.554314 -3.12409e-208 -2.62696 -1.15758e-68 -0.898466 -7.90087e-33 -1.58898 -1.3367e-42 -0.340505 3.03768e-38 0.0677558 -1.7198e-27 -0.606437 1.51047e-63 -0.561026 -6.88979e-32 